tree
version=v4
num_class=1
num_tree_per_iteration=1
label_index=0
max_feature_idx=11
objective=binary sigmoid:1
feature_names=tmin tmax wmax gusts snowfall rain precip freezing_rain blizzard_like doy_sin doy_cos prior
feature_infos=[-41.700000000000003:15.6] [-34.899999999999999:30.199999999999999] [0.28999999999999998:21.670000000000002] [1.3999999999999999:32.5] [0:32.689999999999998] [0:42.799999999999997] [0:47.600000000000001] [0:1] [0:1] [-0.85876395827580299:0.99999073973619013] [0.0043035382962442886:1] [0.55066079295154191:3.8546255506607929]
tree_sizes=3485 3496 3501 3489 3520 3480 3499 3508 3513 3507 3509 3518 3489 3502 3501 3507 3511 3508 3496 3497 3504 3495 3513 3512 3501 3515 3508 3511 3499 3473 3509 3500 3505 3524 3525 3513 3498 3508 3522 3496 3525 3508 3532 3517 3536 3525 3495 3477 3545 3485 3512 3525 3541 3548 3540 3543 3495 3536 3510 3504 3527 3512 3500 3507 3526 3533 3470 3539 3468 3498 3498 3496 3492 3501 3481 3461 3505 3496 3438 3503 3495 3469 3478 3494 3497 3478 3476 3503 3457 3475 3495 3494 3470 3493 3472 3498 3434 3475 3510 3500 3469 3470 3479 3486 3506 3458 3476 3470 3463 3493 3513 3491 3437 3497 3495 3490 3466 3447 3507 3480 3500 3463 3516 3448 3470 3475 3524 3481 3483 3467 3467 3520 3486 3456 3469 3489 3481 3463 3459 3494 3494 3457 3480 3457 3473 3501 3473 3467 3475 3480 3467 3494 3470 3476 3458 3449 3490 3428 3456 3504 3418 3487 3438 3483 3445 3469 3520 3437 3445 3424 3475 3490 3453 3456 3479 3469 3508 3450 3447 3460 3469 3461 3419 3461 3449 3483 3477 3458 3440 3439 3453 3498 3484 3469 3429 3426 3497 3450 3477 3493 3438 3461 3504 3507 3452 3469 3462 3504 3479 3488 3403 3432 3483 3471 3483 3483 3453 3466 3447 3460 3490 3472 3461 3430 3506 3478 3477 3420 3440 3460 3433 3444 3446 3473 3487 3431 3466 3429 3464 3443 3476 3463 3459 3474 3460 3470 3419 3490 3478 3492 3496 3469 3423 3486 3479 3463 3472 3477 3446 3460 3425 3455 3434 3482 3417 3475 3474 3452 3463 3443 3469 3461 3461 3482 3466 3467 3476 3495 3469 3472 3482 3442 3460 3471 3486 3455 3428 3488 3458 3448 3443 3487 3480 3481 3466 3450 3475 3488 3480 3504 3451 3445 3453 3461 3429 3463 3398 3451 3482 3472 3425 3434 3442 3510 3496 3449 3469 3453 3473 3460 3446 3459 3428 3412 3375 3478 3451 3469 3503 3461 3480 3466 3414 3379 3410 3451 3408 3468 3485 3448 3380 3422 3468 3453 3468 3443 3463 3437 3476 3469 3420 3451 3413 3434 3460 3452 3472 3499 3423 3448 3466 3437 3478 3462 3471 3389 3419 3479 3473 3446 3459 3459 3478 3414 3451 3428 3428 3425 3450 3398 3456 3464 3429 3507 3433 3424 3447 3424 3481 3457 3444 3446 3431 3433 3459 3437 3416 3474 3422 3430

Tree=0
num_leaves=31
num_cat=0
split_feature=6 11 11 3 1 9 11 0 9 10 10 9 0 4 9 0 2 9 11 2 0 9 9 9 11 11 9 9 9 9
split_gain=10999.1 3750.28 3426.6 2043.33 1838.41 1683.82 1125.32 1051.59 914.51 887.01 760.189 1073.97 1020.81 755.927 740.283 662.555 583.818 548.818 518.247 616.933 541.222 503.1 620.244 593.584 557.995 502.426 996.007 529.789 492.938 584.113
threshold=1.0000000180025095e-35 2.2577092511013221 1.651982378854626 10.750000000000002 -2.9499999999999997 0.93684664338241042 2.8083700440528641 -4.7499999999999991 -0.81650780615488772 0.99992591960455823 0.70860043010605911 0.077383612769883189 -6.4499999999999993 4.0950000000000006 -0.68074819302830647 -3.0499999999999994 3.8850000000000002 0.97957740588863318 0.7709251101321587 6.9650000000000007 -31.749999999999996 -0.84521774858100296 -0.44050246714542113 0.81650780615488772 3.0837004405286348 2.8083700440528641 0.99788019713185994 0.98591162957303935 -0.77485533897735703 -0.78562075391377661
decision_type=2 2 2 2 2 2 2 2 2 2 2 2 2 2 2 2 2 2 2 2 2 2 2 2 2 2 2 2 2 2
left_child=1 18 8 7 9 6 16 28 -2 13 -10 14 -13 -4 -12 -7 -6 -5 -1 20 -20 -9 -23 -24 -25 26 -17 -27 29 -3
right_child=2 3 4 17 5 15 -8 21 10 -11 11 12 -14 -15 -16 25 -18 -19 19 -21 -22 22 23 24 -26 27 -28 -29 -30 -31
leaf_value=-0.083357977414705894 0.063941943239685203 -0.065902392155643474 -0.0083181667913582742 0.027608968550101979 -0.0057505652972099251 -0.072641804238521707 0.060598338077207839 0.068253617554106277 -0.069296128848493357 0.086653845836722546 0.054586283188025109 -0.060609617465118899 0.038755489116109376 0.056659916834785953 -0.082130654718614346 -0.099999982730377315 0.037771991018704702 -0.063607079465294175 0.046335419789074954 -0.016677198707952659 -0.0673668093884493 -0.047477628784378577 0.02804798387456834 -0.058999761019485654 0.033087956423231188 0.071351339551959464 0.050497595468059264 -0.099999982730377315 -0.039143504662472517 0.09253453338976933
leaf_weight=1912.9972326755524 278.340989112854 93.367623865604401 3761.8276795744896 2869.040632724762 934.54057383537292 349.10339653491974 7037.3208349943161 245.97953969240189 898.62645709514618 312.69758743047714 116.70158594846725 350.22898679971695 986.59369373321533 508.04497838020325 653.25569981336594 228.89227938652039 4390.487235724926 174.95779263973236 108.77788138389587 955.20422440767288 2764.1293430924416 686.96320873498917 1284.569941163063 491.7746514081955 247.18478620052338 353.00929349660873 211.53901940584183 51.718389749526978 6085.7955104112625 154.32922559976578
leaf_count=13730 435 608 16240 8457 3943 2363 11895 344 5968 218 224 2210 2489 935 4658 1788 11241 1124 243 4428 18154 3991 3765 3073 677 452 439 404 33423 73
internal_value=1.81331e-08 -0.028725 0.024236 -0.0131865 0.0327442 0.0419989 0.0474759 -0.0248359 -0.0227627 0.00536614 -0.0307927 -0.0143695 0.0127232 -0.000586838 -0.0614086 -0.0146958 0.0301338 0.0223662 -0.0621072 -0.0514876 -0.0630617 -0.000213951 -0.00642744 0.00750859 -0.0281961 0.00923949 -0.027716 0.0494551 -0.0363294 0.0328128
internal_weight=39498 18075.1 21422.9 12334 18139.2 13556.6 12362.3 9289.96 3283.75 4582.57 3005.41 2106.78 1336.82 4269.87 769.957 1194.26 5325.03 3044 5741.11 3828.11 2872.91 2956.47 2710.49 2023.53 738.959 845.159 440.431 404.728 6333.49 247.697
internal_count=157992 92090 65902 55535 49918 32525 27079 45954 15984 17393 15549 9581 4699 17175 4882 5446 15184 9581 36555 22825 18397 11850 11506 7515 3750 3083 2227 856 34104 681
is_linear=0
shrinkage=1


Tree=1
num_leaves=31
num_cat=0
split_feature=6 11 11 1 3 9 11 0 11 9 9 9 0 0 10 4 2 9 9 3 11 2 0 0 1 11 11 9 9 1
split_gain=9933.36 3390.87 3097.99 1950.41 1844.87 1727.05 1159.05 949.454 929.912 645.738 634.326 1008.13 687.052 609.788 591.085 562.732 554.362 495.6 494.696 487.431 470.055 558.286 489.065 455.999 634.398 789.084 455.201 1018.83 648.612 485.791
threshold=1.0000000180025095e-35 2.2577092511013221 1.101321585903084 -2.9499999999999997 10.750000000000002 0.93684664338241042 2.8083700440528641 -4.7499999999999991 2.2577092511013221 0.79615337246572693 0.077383612769883189 -0.84521774858100296 -3.9499999999999997 -5.0499999999999989 0.99992591960455823 4.0950000000000006 3.8850000000000002 0.97957740588863318 -0.37769397456714027 8.0500000000000025 0.7709251101321587 6.9650000000000007 -31.749999999999996 -27.949999999999996 -8.7499999999999982 2.5330396475770929 2.8083700440528641 0.99788019713185994 0.98591162957303935 15.050000000000002
decision_type=2 2 2 2 2 2 2 2 2 2 2 2 2 2 2 2 2 2 2 2 2 2 2 2 2 2 2 2 2 2
left_child=1 20 9 8 7 6 16 23 18 10 11 -2 -12 -7 15 19 -5 -6 -4 -10 -1 22 -22 -3 25 -25 27 -15 -28 -29
right_child=2 4 3 5 17 13 -8 -9 14 -11 12 -13 -14 26 -16 -17 -18 -19 -20 -21 21 -23 -24 24 -26 -27 28 29 -30 -31
leaf_value=-0.079330149656063123 0.07439514624873049 0.011633736169377058 0.020294188913667348 -0.0071131718766091956 0.026233587776010356 -0.091840988082266706 0.057622195383103252 -0.0002034507450105824 -0.030706068262396177 -0.096652513183378821 -0.046609548736873514 -0.084683674979413315 0.037514839065151122 -0.095540986758264695 0.084405576973202306 0.056196232853954836 0.034338981661293115 -0.060488959198270978 -0.06587865699006866 0.012081968588947207 0.044042678009476442 -0.015844477703470954 -0.064072402013964483 0.025025631600618537 -0.02852581352650493 -0.079882342164192266 0.059490142048256062 -0.083023225664517641 -0.09569490383348267 0.082812452825071353
leaf_weight=1909.6780306100845 119.43990357220173 493.29349783062935 221.71192046999931 951.53702314198017 2868.4939963817596 227.37142290174961 7030.8643886446953 2955.0510017126799 955.2099729180336 352.51625011861324 409.44292539358139 599.3864993751049 596.0116843432188 294.42183850705624 263.99283942580223 500.21848991513252 5293.9811080992222 174.78094077110291 669.36903448402882 2195.2440663874149 108.71951830387115 955.13781975209713 2760.995556473732 206.89066195487976 4289.1610128134489 1341.3854484260082 405.519839823246 58.131535306572914 80.738444030284882 183.74523703753948
leaf_count=13730 125 1792 721 4076 8457 1738 11895 11850 4954 2757 2392 4406 1503 2305 165 877 13949 1124 4382 7805 243 4428 18154 646 22114 9552 664 414 632 142
internal_value=-1.07517e-07 -0.0273066 0.0230396 0.0292736 -0.0125323 0.0384084 0.0436983 -0.0236049 0.00166204 -0.0349908 -0.0223845 -0.0582512 0.00325756 -0.0177795 0.0121556 0.00693092 0.0280235 0.021253 -0.0444378 -0.00089126 -0.0590709 -0.0489559 -0.0599764 -0.0345281 -0.0384291 -0.0658639 -0.00131147 -0.0330771 0.0337232 0.0429563
internal_weight=39472.4 18063.6 21408.9 19332.1 12329.1 14526.3 13276.4 9285.78 4805.75 2076.8 1724.28 718.826 1005.45 1249.93 3914.67 3650.67 6245.52 3043.27 891.081 3150.45 5734.53 3824.85 2869.72 6330.73 5837.44 1548.28 1022.56 536.299 486.258 241.877
internal_count=157992 92090 65902 54719 55535 35815 29920 45954 18904 11183 8426 4531 3895 5895 13801 13636 18025 9581 5103 12759 36555 22825 18397 34104 32312 10198 4157 2861 1296 556
is_linear=0
shrinkage=0.05


Tree=2
num_leaves=31
num_cat=0
split_feature=6 11 11 2 1 9 11 9 0 9 9 0 10 4 0 9 1 5 2 3 0 1 11 10 9 0 11 9 9 9
split_gain=8980.61 3077.22 2820.84 1677.39 1510.9 1401.57 909.192 775.196 744.395 643.756 1175.5 684.74 633.115 599.802 595.747 587.175 665.249 528.961 501.25 466.236 452.903 628.211 440.048 434.571 949.394 646.501 640.894 498.397 542.015 430.631
threshold=1.0000000180025095e-35 2.2577092511013221 1.651982378854626 5.6150000000000011 -3.6499999999999999 0.93684664338241042 2.8083700440528641 -0.81650780615488772 -4.7499999999999991 0.077383612769883189 0.60160177853794483 -7.2499999999999991 0.99992591960455823 4.0250000000000012 -5.0499999999999989 0.97957740588863318 -0.34999999999999992 3.4500000000000006 3.6150000000000007 13.250000000000002 -27.949999999999996 -8.7499999999999982 2.5330396475770929 0.98367285631203072 0.0086066780779172746 -9.7499999999999982 1.101321585903084 0.90332234122743971 0.57375101487245939 -0.28022029520735747
decision_type=2 2 2 2 2 2 2 2 2 2 2 2 2 2 2 2 2 2 2 2 2 2 2 2 2 2 2 2 2 2
left_child=1 23 7 8 12 6 18 -2 20 17 11 -11 13 -4 -7 16 19 -9 -6 29 -3 22 -22 25 -25 -1 -27 28 -28 -5
right_child=2 3 4 15 5 14 -8 9 -10 10 -12 -13 -14 -15 -16 -17 -18 -19 -20 -21 21 -23 -24 24 -26 26 27 -29 -30 -31
leaf_value=-0.085628645877629972 0.05916539951411727 0.012597959668973506 -0.0099141163310267934 0.023745723370033688 -0.0099912493310973047 -0.088086872306867292 0.053587588026518029 -0.081436308778309902 -0.0024966603741552224 -0.054971816625264791 -0.054915046661494049 0.040430955437167987 0.077702561346167279 0.052478314268594964 0.0025099222711073457 -0.065447234292660778 0.03976588155645483 0.014537150303508148 0.032956764265360622 0.032546885355243298 0.0045571387339401245 -0.028478892326690694 -0.078591419731644907 -0.093691600155132296 0.012652025477983525 -0.067226191321651113 -0.03035399327390334 -0.076789739532887355 0.04990087588645397 -0.042434172815622076
leaf_weight=1838.046132683754 277.47579510509968 467.41975988447666 3314.8847476989031 358.95457109808922 794.90438069403172 222.78447125852108 7414.4465703070164 744.77401845157146 2633.4136913269758 236.58280415832996 919.18774200975895 917.41279351711273 262.19063241779804 435.84414768218994 978.21431542932987 213.99055391550064 1956.8547301739454 177.8541100025177 4674.3441799283028 611.72247697412968 183.30521519482136 3908.3563327044249 1206.1335714906454 324.06373631954193 595.62900146842003 1748.7359016984701 591.03557711839676 291.95997829735279 326.65723246335983 779.80287377536297
leaf_count=13812 435 1670 14616 1108 3500 1711 13013 5481 10793 1489 5794 2160 201 786 3841 1434 4740 625 12250 1627 704 20332 8727 2544 2203 11997 3176 2086 737 4400
internal_value=-6.73288e-07 -0.0259829 0.0219272 -0.0119152 0.0296527 0.0373641 0.0421798 -0.0207864 -0.0245217 -0.0281917 -0.0127296 0.0208723 0.00258692 -0.00266396 -0.0142957 0.0150852 0.0197336 -0.0629356 0.0267147 -0.00266041 -0.0345822 -0.0387448 -0.0676218 -0.0563031 -0.0248193 -0.06234 -0.0478707 -0.0198895 -0.00178688 -0.0215732
internal_weight=39407 18036.1 21370.9 12320 18097.6 14084.7 12883.7 3273.29 8398.63 2995.81 2073.18 1154 4012.92 3750.73 1201 3921.33 3707.33 922.628 5469.25 1750.48 5765.21 5297.8 1389.44 5716.13 919.693 4796.43 2958.39 1209.65 917.693 1138.76
internal_count=157992 92090 65902 55535 49918 34315 28763 15984 42226 15549 9443 3649 15603 15402 5552 13309 11875 6106 15750 7135 31433 29763 9431 36555 4747 31808 17996 5999 3913 5508
is_linear=0
shrinkage=0.05


Tree=3
num_leaves=31
num_cat=0
split_feature=6 11 11 1 3 9 11 11 0 9 9 9 0 0 10 11 1 9 0 2 4 9 9 3 3 0 1 11 11 2
split_gain=8126.47 2800.56 2581.1 1625.01 1530.29 1423.62 950.301 805.157 767.941 561.017 539.929 848.014 588.258 518.2 491.732 486.078 845.61 483.13 495.471 464.42 462.604 445.662 436.419 435.267 433.882 431.711 499.998 620.29 413.948 489.83
threshold=1.0000000180025095e-35 2.2577092511013221 1.101321585903084 -2.9499999999999997 9.9500000000000011 0.93684664338241042 2.8083700440528641 2.2577092511013221 -4.4499999999999993 0.79615337246572693 0.077383612769883189 -0.84521774858100296 -3.9499999999999997 -3.0499999999999994 0.99992591960455823 2.8083700440528641 17.350000000000005 0.97957740588863318 -10.449999999999998 3.8850000000000002 4.0950000000000006 -0.37769397456714027 0.98591162957303935 8.0500000000000025 13.250000000000002 -27.949999999999996 -8.7499999999999982 2.5330396475770929 0.7709251101321587 7.0050000000000008
decision_type=2 2 2 2 2 2 2 2 2 2 2 2 2 2 2 2 2 2 2 2 2 2 2 2 2 2 2 2 2 2
left_child=1 28 9 7 8 6 19 21 25 10 11 -2 -12 -7 20 16 -15 18 24 -5 23 -4 -17 -9 -6 -3 27 -27 -1 -30
right_child=2 4 3 5 17 13 -8 14 -10 -11 12 -13 -14 15 -16 22 -18 -19 -20 -21 -22 -23 -24 -25 -26 26 -28 -29 29 -31
leaf_value=-0.072898580673398466 0.068334091478049835 0.012402960030606687 0.019828528551658269 -0.0066003806826360201 -0.033397653255955152 -0.06581759411399192 0.052413879406092961 -0.028874586752802241 -0.00019813243616583943 -0.090091301205963481 -0.043116374239100801 -0.078229320571647248 0.034847415430075371 -0.088596424736684387 0.077490311798794995 0.064981649752069964 0.046737796155548801 -0.055295440558444001 0.033100699066563037 0.031350264380654094 0.051201379609830261 -0.06200769037049824 -0.091216473980527388 0.01156760956510617 0.028485740277899865 0.021199792590863721 -0.027816773679347526 -0.075002409079587995 -0.054519901495114369 -0.012865921239304634
leaf_weight=1887.7548718303442 118.40361952781677 484.99025525152683 221.63162787258625 951.35890989005566 660.64368362724781 369.98003546893597 6985.643440335989 954.67956902086735 2583.1152919828892 348.67018850147724 407.93710985779762 592.90339587628841 594.61573234200478 265.4938310533762 260.51557971537113 351.44457095861435 204.19983664155006 227.23173807561398 2353.8935685157776 5281.3325566351414 497.29828798770905 667.11479620635509 51.238837063312531 2195.016214504838 495.82888039946556 193.52649194002151 4056.2764205336571 1248.688116133213 2863.7379783242941 936.62147490680218
leaf_count=13730 125 1726 721 4076 3510 2558 11895 4954 10360 2757 2392 4406 1503 2050 165 452 431 1464 6164 13949 877 4382 404 7805 1372 622 21238 9079 18488 4337
internal_value=-1.60942e-06 -0.0247476 0.0208824 0.0265761 -0.0113352 0.034941 0.0397506 0.00135591 -0.0229824 -0.0322766 -0.0205147 -0.0538325 0.00312408 -0.0162317 0.011126 0.004798 -0.0297597 0.0153603 0.019934 0.0255575 0.00638539 -0.0415997 0.0451065 -0.000690507 -0.00686562 -0.0328185 -0.0368073 -0.0620933 -0.0537605 -0.044254
internal_weight=39311.8 17992.3 21319.5 19256.9 12304.2 14460.7 13218.3 4796.26 8566.6 2062.53 1713.86 711.307 1002.55 1242.36 3907.51 872.377 469.694 3737.6 3510.37 6232.69 3646.99 888.746 402.683 3149.7 1156.47 5983.48 5498.49 1442.21 5688.11 3800.36
internal_count=157992 92090 65902 54719 55535 35815 29920 18904 43025 11183 8426 4531 3895 5895 13801 3337 2481 12510 11046 18025 13636 5103 856 12759 4882 32665 30939 9701 36555 22825
is_linear=0
shrinkage=0.05


Tree=4
num_leaves=31
num_cat=0
split_feature=6 11 11 1 2 9 11 11 10 9 9 10 9 9 10 9 0 9 9 0 9 1 9 9 1 9 9 9 9 9
split_gain=7360.31 2553.13 2339.26 1475.98 1392.37 1312.31 869.45 824.309 650.837 824.777 728.581 649.634 954.228 646.049 643.476 515.332 508.591 493.143 772.915 532.153 492.248 566.287 458.66 461.818 676.162 453.441 727.384 524.031 578.099 677.857
threshold=1.0000000180025095e-35 2.2577092511013221 1.101321585903084 -3.6499999999999999 5.6150000000000011 0.93684664338241042 2.8083700440528641 2.2577092511013221 0.83824865459667641 0.81650780615488772 0.78562075391377639 0.8977101403255705 -0.28022029520735747 0.94832645186114817 0.998148560797531 0.79615337246572693 -5.0499999999999989 0.077383612769883189 -0.84521774858100296 -3.9499999999999997 0.97957740588863318 -0.34999999999999992 -0.29670182876844958 -0.40934079590914529 -17.049999999999997 0.75263894808755893 0.74119455533027045 0.65513208963863001 0.54522024235295974 -0.75263894808755871
decision_type=2 2 2 2 2 2 2 2 2 2 2 2 2 2 2 2 2 2 2 2 2 2 2 2 2 2 2 2 2 2
left_child=1 -1 15 7 8 6 -5 -4 9 10 25 -10 22 -11 -14 17 -7 18 -2 -19 21 -6 23 -13 -25 26 27 28 29 -3
right_child=2 4 3 5 20 16 -8 -9 11 13 -12 12 14 -15 -16 -17 -18 19 -20 -21 -22 -23 -24 24 -26 -27 -28 -29 -30 -31
leaf_value=-0.051392989982298444 0.065443797196213002 0.013460939417299755 -0.048752669165398936 0.023650134292900856 -0.0025920152711398771 -0.082481313474336362 0.04883275803838219 0.0093615451422582249 -0.082344360619554649 -0.085090140676199591 0.063646321611443277 0.045263043460235457 -0.064412123028431231 -0.016599390143556381 0.0029261361011457443 -0.086637342196652423 -0.0010225575727819782 -0.041075443598223793 -0.075051836804551658 0.03316335917179964 -0.060257392583992132 0.036594886960529559 0.069191998526190901 0.040468763260363735 -0.083114414468257833 -0.096242847801601222 0.08082503974801028 -0.077492622788380594 0.037292190917117683 -0.05415729642822982
leaf_weight=5653.6601314619184 117.47432008385658 780.70123581588268 742.15801955759525 6422.5001480132341 1747.0783746242523 236.34771557152271 7350.149077475071 3431.5788796469569 678.70761324465275 529.58338947594166 444.05657868087292 260.14027109742165 1489.048039495945 984.12058208882809 465.73437415063381 344.54353339970112 1012.4549121707678 406.82369267940521 587.24499469250441 593.59537519514561 211.98909418284893 1951.9642721265554 257.84936405718327 175.22307939827442 300.48264735937119 130.67687094211578 247.27744823694229 251.72232481837273 670.28972242772579 705.64220310747623
leaf_count=36555 125 2749 4539 18817 7135 1850 13013 12342 5059 3951 723 623 10013 4715 1919 2757 4158 2392 4406 1503 1434 4740 405 441 2243 1025 236 1818 1860 4446
internal_value=-2.6502e-06 -0.0235882 0.0199094 0.025331 -0.0107894 0.0326394 0.0370895 -0.000972103 -0.0222963 -0.0101058 0.00416526 -0.0382405 -0.0280882 -0.0405615 -0.0483685 -0.0308638 -0.0164394 -0.0195941 -0.0516317 0.00297391 0.0138402 0.0180867 0.0118069 -0.00830152 -0.0375934 -0.00531429 -0.000839929 -0.00922486 -0.00125665 -0.0186408
internal_weight=39180.8 17935.9 21244.9 19195.2 12282.3 15021.5 13772.6 4173.74 8371.26 4744.07 3230.37 3627.19 2948.48 1513.7 1954.78 2049.68 1248.8 1705.14 704.719 1000.42 3911.03 3699.04 993.695 735.846 475.706 2786.31 2655.63 2408.36 2156.63 1486.34
internal_count=157992 92090 65902 54719 55535 37838 31830 16881 42226 21523 12857 20703 15644 8666 11932 11183 6008 8426 4531 3895 13309 11875 3712 3307 2684 12134 11109 10873 9055 7195
is_linear=0
shrinkage=0.05


Tree=5
num_leaves=31
num_cat=0
split_feature=6 11 11 3 1 10 0 1 10 10 10 10 11 9 9 9 0 10 10 10 1 1 5 1 9 9 3 9 11 9
split_gain=6668.32 2340.85 2130.93 1444.25 1150.9 1138.73 683.517 646.851 646.023 637.669 677.631 860.796 628.559 626.676 530.384 938.207 551.721 511.515 555.64 1222.55 494.691 727.17 455.25 451.309 440.137 433.956 646.202 425.234 517.205 392.998
threshold=1.0000000180025095e-35 2.0925110132158595 1.651982378854626 9.9500000000000011 -2.9499999999999997 0.51972456038539816 -4.4499999999999993 -23.249999999999996 0.99992591960455823 0.99962961997441069 0.95748518835503915 0.95493138204271821 2.8083700440528641 -0.81650780615488772 0.077383612769883189 0.60160177853794483 -7.2499999999999991 0.98927755889796032 0.98367285631203072 0.94415253529446119 -18.349999999999998 -8.4499999999999975 3.4500000000000006 -8.0499999999999989 0.87167402993692 0.70555747466671093 13.65 0.11165487117339379 2.2577092511013221 -0.36170033253352257
decision_type=2 2 2 2 2 2 2 2 2 2 2 2 2 2 2 2 2 2 2 2 2 2 2 2 2 2 2 2 2 2
left_child=1 7 13 6 8 24 9 -1 17 10 11 20 27 -2 22 16 -16 18 19 23 29 -22 -15 -4 -6 -25 -27 28 -7 -3
right_child=2 3 4 -5 5 12 -8 -9 -10 -11 -12 -13 -14 14 15 -17 -18 -19 -20 -21 21 -23 -24 25 -26 26 -28 -29 -30 -31
leaf_value=0.080325253877851888 0.05397319440302039 -0.092926969701528625 -0.024474837869786055 0.012815431463393263 -0.11126677464837237 0.037329567590962724 -0.0013001698138120528 -0.056022600901273402 0.074280395460368354 0.038740279037290035 -0.069334066233293856 0.063242743706147381 0.050184486695109345 -0.074467722452028637 -0.049508133407751419 -0.049136819574752674 0.03655868363928258 -0.054296059779176731 0.053610950933411464 -0.090244212103190891 -0.072175700032726289 -0.025160554972591516 0.015015113524035478 0.031976760862816749 0.0055609485458091249 -0.067523158107127931 0.044255336026735231 0.04017917402749737 -0.011104723944800055 0.038526468983275712
leaf_weight=88.708151713013649 273.64419764280319 66.992344357073307 798.94670377671719 4094.5315524563193 83.613495007157326 984.99848490953445 2624.3543576300144 4479.6169538572431 305.31562791764736 308.1893268674612 1165.2259755581617 250.83260598778725 6288.5440656393766 728.26275131851435 233.95692549645901 903.80943111330271 912.26149134337902 407.3330754339695 503.20013779401779 356.63812628388405 1092.8539415150881 3323.6973777189851 176.60709649324417 1662.2602729797363 2250.9070586040616 304.21586053073406 224.87389911711216 2520.292141854763 1251.4916592687368 375.82537725567818
leaf_count=87 435 530 3986 14120 661 2280 10711 30485 218 892 8247 427 10284 5481 1489 5794 2160 2503 953 2673 8091 17535 625 4533 8375 2020 507 5635 5290 965
internal_value=-4.14241e-06 -0.0224953 0.0189809 -0.0118907 0.0257098 0.0331047 -0.0228768 -0.053375 0.0040249 -0.0314777 -0.0349261 -0.0270804 0.0398107 -0.0184148 -0.0251184 -0.0110447 0.0189914 -0.00101333 0.00462383 -0.00274121 -0.0317428 -0.0367942 -0.057003 0.00769484 0.00137663 0.0194236 -0.020015 0.0260965 0.0102268 0.0186393
internal_weight=39042 17870.8 21171.2 13302.5 17942.6 13379.8 9207.97 4568.33 4562.78 6583.62 6275.43 5110.2 11045.3 3228.54 2954.9 2050.03 1146.22 4257.47 3850.14 3346.93 4859.37 4416.55 904.87 2990.3 2334.52 2191.35 529.09 4756.78 2236.49 442.818
internal_count=157992 92090 65902 61518 49918 32525 47398 30572 17393 36687 35795 27548 23489 15984 15549 9443 3649 17175 14672 13719 27121 25626 6106 11046 9036 7060 2527 13205 7570 1495
is_linear=0
shrinkage=0.05


Tree=6
num_leaves=31
num_cat=0
split_feature=6 11 11 1 3 10 11 9 9 9 9 10 11 9 2 9 9 9 9 0 9 4 11 11 9 11 2 2 9 2
split_gain=6044.6 2150.99 1958.24 1237.32 1179.12 1133.37 660.972 638.092 648.341 1437.41 754.471 634.274 646.887 564.933 516.593 492.584 457.259 426.396 658.112 457.193 402.369 399.768 396.714 515.921 391.948 393.833 569.818 388.796 384.524 382.373
threshold=1.0000000180025095e-35 2.2577092511013221 1.101321585903084 -2.9499999999999997 10.750000000000002 0.51972456038539816 2.8083700440528641 -0.84521774858100296 0.53071038945192506 0.81650780615488772 0.34559951088524249 0.99992591960455823 2.2577092511013221 0.94832645186114817 4.7150000000000007 -0.37769397456714027 0.79615337246572693 0.077383612769883189 -0.84521774858100296 -3.2499999999999996 0.87167402993692 4.0250000000000012 3.0837004405286348 3.41409691629956 0.90332234122743971 0.7709251101321587 6.9650000000000007 4.3950000000000005 0.96790192975318112 3.6150000000000007
decision_type=2 2 2 2 2 2 2 2 2 2 2 2 2 2 2 2 2 2 2 2 2 2 2 2 2 2 2 2 2 2
left_child=1 24 16 11 7 20 29 -3 10 -10 14 12 15 -11 -9 -4 17 18 -2 -19 -5 27 -15 -24 25 -1 -27 -14 -25 -7
right_child=2 4 3 5 -6 6 -8 8 9 13 -12 -13 21 22 -16 -17 -18 19 -20 -21 -22 -23 23 28 -26 26 -28 -29 -30 -31
leaf_value=-0.062479793544204944 0.060684405497708517 0.059850797015897905 0.020391528265107473 -0.10484732273413025 0.017349209215419638 -0.009290813543480712 0.048039713022756489 -0.036126559487177433 0.022978955593040303 -0.077620828954014509 -0.088467225852689887 0.071108534972439935 -0.028160155718169155 -0.052998713678602538 0.0010658823604002378 -0.066679980311473708 -0.081985857802608531 -0.033447534393623919 -0.070269933179885932 0.034516481177980389 0.0035224693439559612 0.046844047364548981 0.046565019396870695 0.031407308903906549 -0.078851545803021506 -0.04391104182956794 0.0046422557663784014 0.010263045519874692 -0.094079602507941396 0.029448645096796962
leaf_weight=1534.5767413899302 115.23314602673054 251.90894417464733 221.34437473118305 88.84920497238636 3026.0868488699198 733.30483922362328 6242.0195410549641 3368.2076138779521 2064.7233449146152 611.05108743906021 535.80568704009056 302.3553819283843 940.02722373604774 454.13558584451675 1291.6826864331961 610.26595039665699 335.90039134025574 463.3317823857069 573.02618835866451 531.06793928146362 2381.8140965551138 501.10841348767281 366.29654915630817 99.272316262125969 832.25899340957403 2398.6911343932152 807.77632945775986 2197.371701285243 158.54280450195074 4848.730230152607
leaf_count=11285 125 395 721 697 9581 3182 10284 19352 6767 4506 4278 223 4891 2833 5389 4324 2757 2619 4406 1276 9093 903 893 295 6512 15392 3366 7842 1246 12559
internal_value=-5.07547e-06 -0.0214599 0.0181075 0.0230653 -0.00972577 0.0304248 0.0368605 -0.0186298 -0.0208388 -0.0050066 -0.0322779 0.00102157 -0.00371905 -0.0392116 -0.0258171 -0.0435047 -0.0287232 -0.0180906 -0.0483447 0.00284925 -0.000374691 0.00537428 -0.0174448 0.00842612 -0.0472043 -0.0416489 -0.0316794 -0.00124931 -0.0457606 0.0243595
internal_weight=38886.8 17801 21085.8 19067.2 12227.7 14294.7 11824.1 9201.63 8949.72 3754.02 5195.7 4772.47 4470.12 1689.3 4659.89 831.61 2018.56 1682.66 688.259 994.4 2470.66 3638.51 1078.25 624.112 5573.3 4741.04 3206.47 3137.4 257.815 5582.04
internal_count=157992 92090 65902 54719 55535 35815 26025 45954 45559 16540 29019 18904 18681 9773 24741 5045 11183 8426 4531 3895 9790 13636 5267 2434 36555 30043 18758 12733 1541 15741
is_linear=0
shrinkage=0.05


Tree=7
num_leaves=31
num_cat=0
split_feature=6 11 11 3 1 9 11 0 10 1 10 11 10 9 9 9 0 11 9 9 9 9 9 9 10 9 9 0 11 11
split_gain=5482.65 1979.52 1777.92 1200.39 1123.52 1051.04 680.737 674.712 703.763 590.169 580.495 587.95 452.405 469.31 818.983 449.938 440.769 439.437 776.488 429.106 424.865 415.244 551.977 705.352 1051.32 504.772 697.972 415.102 404.81 400.13
threshold=1.0000000180025095e-35 2.0925110132158595 1.101321585903084 10.750000000000002 -2.9499999999999997 0.93684664338241042 2.8083700440528641 -10.449999999999998 0.998148560797531 -23.249999999999996 0.99992591960455823 2.2577092511013221 0.83824865459667641 -0.28022029520735747 -0.36170033253352257 -0.37769397456714027 -3.0499999999999994 2.8083700440528641 0.99788019713185994 1.0000000180025095e-35 0.79615337246572693 -0.84521774858100296 -0.44050246714542113 0.81650780615488772 0.95748518835503915 0.99788019713185994 0.99884271619762399 -1.6499999999999997 2.8083700440528641 3.0837004405286348
decision_type=2 2 2 2 2 2 2 2 2 2 2 2 2 2 2 2 2 2 2 2 2 2 2 2 2 2 2 2 2 2
left_child=1 9 20 7 10 6 -6 8 12 -1 11 15 -3 14 -14 -4 -7 18 -18 -10 -2 -9 28 24 -24 29 -27 -26 -23 -25
right_child=2 3 4 -5 5 16 -8 21 19 -11 -12 -13 13 -15 -16 -17 17 -19 -20 -21 -22 22 23 25 27 26 -28 -29 -30 -31
leaf_value=0.078485947043859153 -0.01733100855927008 -0.022241536636004245 0.019371129656082273 0.015316442954203688 0.021219104173065849 -0.061259766658287862 0.044129170447633537 0.055045857197960617 -0.089370814608414187 -0.051774120859963316 0.068508593869413811 0.0051126998791666657 -0.080237586464054989 -0.073164700949325215 0.018104745689283188 -0.063947133333361258 -0.088647791817008464 0.042737503893685413 0.040674514190405159 0.054041771385437934 -0.079468090997737717 -0.067188669373019691 0.031560630241117327 -0.07487473581840455 -0.060400891547247294 0.082465984162976499 -0.091980928741917545 0.036451863592668242 -0.0074593175628308349 -0.0084601960599233385
leaf_weight=88.709847837686539 1669.328253030777 2036.0689536258578 221.35333201289177 3310.0934354811907 6189.2822332680225 364.35371830314398 6809.9528550878167 254.66115897893906 62.097112230956554 4395.2294654399157 298.24231489002705 3634.0146054551005 383.16730260848999 1358.6347203105688 473.10456287115812 604.66938231885433 250.30172373354435 400.01986415684223 216.44289823621511 325.91377655416727 329.37969455122948 642.47747537493706 1975.6447222456336 595.68097479641438 539.92532928287983 183.94567693769932 83.30774798989296 139.13871497660875 507.9407404884696 366.20540250092745
leaf_count=87 8426 10786 721 10789 18025 2558 11895 424 494 30485 223 13636 3013 10320 1666 4324 1990 856 491 748 2757 4408 5728 4350 3622 192 658 361 2290 1669
internal_value=-6.60997e-06 -0.0204843 0.017285 -0.0107588 0.0220064 0.0290393 0.0332211 -0.0194526 -0.0333705 -0.0491971 0.000973625 -0.00354243 -0.0392541 -0.0548931 -0.0259018 -0.0416199 -0.0151158 0.00428128 -0.0286773 0.0310901 -0.027571 -0.00724507 -0.0103961 -0.00138538 0.0131135 -0.0327002 0.0280877 -0.040556 -0.0408165 -0.0495897
internal_weight=38709.3 17721.9 20987.3 13238 18988.6 14230.4 12999.2 9927.91 4638.99 4483.94 4758.28 4460.04 4250.98 2214.91 856.272 826.023 1231.12 866.764 466.745 388.011 1998.71 5288.93 5034.27 3883.85 2654.71 1229.14 267.253 679.064 1150.42 961.886
internal_count=157992 92090 65902 61518 54719 35815 29920 50729 27027 30572 18904 18681 25785 14999 4679 5045 5895 3337 2481 1242 11183 23702 23278 16580 9711 6869 850 3983 6698 6019
is_linear=0
shrinkage=0.05


Tree=8
num_leaves=31
num_cat=0
split_feature=6 11 11 1 9 2 11 0 11 10 9 9 10 9 9 9 9 9 0 11 3 2 9 9 9 9 9 11 9 9
split_gain=4975.33 1819.63 1612.75 1031.21 1025.94 984.552 628.761 517.378 510.924 494.653 634.894 593.34 546.942 767.112 527.67 499.659 519.866 444.551 523.07 441.436 467.898 425.639 419.795 614.68 487.073 475.673 575.234 428.458 398.414 393.779
threshold=1.0000000180025095e-35 2.2577092511013221 1.101321585903084 -5.6499999999999995 0.93684664338241042 5.5950000000000006 2.8083700440528641 -5.0499999999999989 2.2577092511013221 0.83824865459667641 0.81650780615488772 0.78562075391377639 0.8977101403255705 -0.28022029520735747 0.94832645186114817 1.0000000180025095e-35 0.017213356155834299 0.97957740588863318 -10.449999999999998 2.8083700440528641 13.250000000000002 3.7550000000000003 0.75263894808755893 0.74119455533027045 0.65513208963863001 0.54522024235295974 -0.75263894808755871 2.5330396475770929 0.79615337246572693 0.077383612769883189
decision_type=2 2 2 2 2 2 2 2 2 2 2 2 2 2 2 2 2 2 2 2 2 2 2 2 2 2 2 2 2 2
left_child=1 -1 28 8 6 9 21 -6 -4 10 11 22 -11 -14 -12 -15 -17 18 19 -7 -21 -5 23 24 25 26 -3 -27 29 -2
right_child=2 5 3 4 7 17 -8 -9 -10 12 14 -13 13 15 -16 16 -18 -19 -20 20 -22 -23 -24 -25 -26 27 -28 -29 -30 -31
leaf_value=-0.043520638139339853 -0.04590690964344063 0.013817546120989481 -0.056833553947284149 -0.012122607400236633 -0.079811059347914021 0.037643471432334714 0.038825544996388829 -0.0010845345102915146 0.0019633986472159708 -0.073935057468002621 -0.075971931464311235 0.058666931947474847 0.012407119894579256 -0.080931722281146631 -0.013340474741579463 0.054492350124492286 -0.037403720635618448 -0.058495369835003454 0.028993871696616037 -0.054952604495071278 0.021490521511097736 0.023365325558126565 -0.092282399883320876 0.075509774711257097 -0.07378894716363088 -0.098796111458816671 -0.048976331431254516 0.047129298325127106 -0.077216950673257512 0.0035818311083804888
leaf_weight=5469.6496555060148 676.07116677612066 775.54256915301085 443.04572158306837 987.11737585812807 263.30548110604286 340.83340735733509 8109.6515375673771 1006.1601589843631 2225.0345031395555 656.45700766891241 513.43690860271454 437.76401525735855 986.11447338759899 573.69975189119577 974.71494478732347 177.75619257986546 1146.7176072373986 212.96885082870722 2487.5623666271567 594.4116425216198 301.81954765319824 5865.7430532053113 128.37498711049557 246.31065376102924 247.96432135999203 54.78930751979351 688.4819271042943 614.20148418843746 322.21410519629717 991.38063706457615
leaf_count=36555 4531 2734 3040 4369 2111 856 15969 4159 8592 5045 3925 721 3702 4505 4690 384 6989 1452 6568 3752 876 16479 1015 235 1808 429 4427 1422 2757 3895
internal_value=-8.69564e-06 -0.0195695 0.0164994 0.021007 0.025742 -0.00879608 0.0294035 -0.0174136 -0.00780008 -0.0186417 -0.00797635 0.0045932 -0.0327434 -0.0233683 -0.0349494 -0.0419538 -0.0250704 0.0117631 0.0157804 -0.0107901 -0.0292092 0.0182535 -0.00399694 0.000316876 -0.00746178 0.000248798 -0.0157123 0.0351782 -0.0263189 -0.0164835
internal_weight=38519.3 17629.6 20889.7 18900.1 16232 12159.9 14962.5 1269.47 2668.08 8222.33 4681.58 3193.43 3540.75 2884.29 1488.15 1898.17 1324.47 3937.6 3724.63 1237.06 896.231 6852.86 2755.67 2627.29 2380.98 2133.02 1464.02 668.991 1989.67 1667.45
internal_count=157992 92090 65902 54719 43087 55535 36817 6270 11632 42031 21406 12791 20625 15580 8615 11878 7373 13504 12052 5484 4628 20848 12070 11055 10820 9012 7161 1851 11183 8426
is_linear=0
shrinkage=0.05


Tree=9
num_leaves=31
num_cat=0
split_feature=6 11 11 0 1 10 2 10 3 2 1 9 10 9 1 9 9 0 9 6 9 9 9 9 1 10 9 0 9 9
split_gain=4515.85 1687.63 1481.48 1038.98 824.74 832.683 772.272 593.507 651.587 548.019 541.525 533.024 494.441 478.078 679.089 477.083 725.806 462.809 460.077 438.947 429.783 2164.93 412.246 409.974 402.408 393.647 633.762 384.727 414.785 377.709
threshold=1.0000000180025095e-35 2.0925110132158595 1.651982378854626 -10.449999999999998 -2.7499999999999996 0.51972456038539816 4.6450000000000005 0.998148560797531 12.550000000000002 3.7550000000000003 -23.249999999999996 -0.81650780615488772 0.99992591960455823 0.97957740588863318 16.750000000000004 0.077383612769883189 0.60160177853794483 -6.4499999999999993 1.0000000180025095e-35 5.7500000000000009 -0.060211047012787407 -0.28022029520735747 -0.84521774858100296 -0.44050246714542113 5.5500000000000007 0.95748518835503915 0.81650780615488772 -27.949999999999996 -0.77485533897735703 0.99788019713185994
decision_type=2 2 2 2 2 2 2 2 2 2 2 2 2 2 2 2 2 2 2 2 2 2 2 2 2 2 2 2 2 2
left_child=1 10 11 7 12 -6 22 8 27 -7 -1 -2 19 -8 -15 24 17 -17 -9 -4 21 -11 -5 -24 -13 26 -25 -3 -29 -28
right_child=2 3 4 6 5 9 13 18 -10 20 -12 15 -14 14 -16 16 -18 -19 -20 -21 -22 -23 23 25 -26 -27 29 28 -30 -31
leaf_value=0.076784448079943557 0.051328890412923212 0.0026297080138062653 -0.0065108177904590614 0.055046171449526962 0.00059145632512675361 0.00053050642176772646 0.022674720449823757 -0.08631517128920653 0.016943182245683915 0.034528781140203003 -0.048055052519910213 -0.076985931778984565 0.065944888293253165 -0.082741030003959076 0.062162093165649385 -0.03868904770595203 -0.0429644046229197 0.035756752632143854 0.051769471578571015 0.041767059635728861 0.046911011870610059 -0.12042677629797693 -0.051721352727582819 0.020725840250412964 -0.0053564887067920133 -0.051247286049322174 -0.057811042844834494 0.05099927004130398 -0.045388826023807644 0.025474439691692885
leaf_weight=88.656326949596405 270.32498543709517 531.60889521986246 3892.9737089276314 198.23498256504536 2291.1934110373259 1107.0854447335005 3686.6253449991345 71.963144905865192 629.19904044270515 3844.4064421653748 4303.9756406843662 581.87203712016344 297.23325833678246 254.58923847973347 118.48627070337534 275.68334468454123 871.98017171770334 860.07810167968273 372.91930346935987 535.59634176641703 5433.031393840909 239.44809606671333 747.4188619852066 1310.1347773596644 295.7279364541173 461.27048177272081 553.16454900801182 114.89912836253643 3902.8440524786711 180.56850015372038
leaf_count=87 435 2134 16721 311 8941 4166 11124 584 1996 8065 30485 4659 222 2000 254 1687 5794 1962 826 1020 8853 1930 4840 4289 1447 3046 3778 254 25508 574
internal_value=-1.06287e-05 -0.018707 0.0157459 -0.00973426 0.0213902 0.0279298 0.00243443 -0.0259864 -0.0307474 0.0338257 -0.0455354 -0.0158068 0.00351789 0.0172164 -0.0367208 -0.0220967 -0.00865472 0.0176865 0.0294332 -0.000672036 0.0376989 0.0254433 -0.0149559 -0.0192224 -0.0528487 -0.00952616 -0.000110327 -0.0373433 -0.0426323 -0.0373148
internal_weight=38323.2 17526.6 20796.6 13133.9 17641 12915.2 7510.49 5623.43 5178.55 10624 4392.63 3155.67 4725.8 4059.7 373.076 2885.34 2007.74 1135.76 444.882 4428.57 9516.89 4083.85 3450.79 3252.56 877.6 2505.14 2043.87 4549.35 4017.74 733.733
internal_count=157992 92090 65902 61518 49918 31955 30216 31302 29892 23014 30572 15984 17963 13378 2254 15549 9443 3649 1410 17741 18848 9995 16838 16527 6106 11687 8641 27896 25762 4352
is_linear=0
shrinkage=0.05


Tree=10
num_leaves=31
num_cat=0
split_feature=6 11 11 0 1 9 2 11 10 3 11 0 9 1 9 0 9 9 11 9 0 9 2 9 9 0 9 9 10 11
split_gain=4101.06 1552.16 1357.92 943.904 892.388 844.006 698.958 576.036 538.701 593.044 535.037 496.542 433.24 619.662 417.832 408.768 398.907 374.11 388.723 361.78 352.048 377.058 346.039 342.175 574.282 396.046 338.979 411.889 539.924 337.502
threshold=1.0000000180025095e-35 2.0925110132158595 1.101321585903084 -10.449999999999998 -3.7499999999999996 0.93684664338241042 4.6450000000000005 2.8083700440528641 0.998148560797531 12.550000000000002 2.2577092511013221 -30.549999999999997 0.97957740588863318 16.750000000000004 1.0000000180025095e-35 -5.0499999999999989 -0.37769397456714027 -0.84521774858100296 3.0837004405286348 0.79615337246572693 -27.949999999999996 -0.77485533897735703 3.9050000000000007 0.077383612769883189 -0.81650780615488772 -3.9499999999999997 -0.44050246714542113 0.81650780615488772 0.95748518835503915 2.8083700440528641
decision_type=2 2 2 2 2 2 2 2 2 2 2 2 2 2 2 2 2 2 2 2 2 2 2 2 2 2 2 2 2 2
left_child=1 11 19 8 10 7 17 22 9 20 16 -1 -8 -14 -10 -7 -4 -5 26 23 -3 -22 -6 24 -2 -25 -19 28 -28 -17
right_child=2 3 4 6 5 15 12 -9 14 -11 -12 -13 13 -15 -16 29 -18 18 -20 -21 21 -23 -24 25 -26 -27 27 -29 -30 -31
leaf_value=0.066597035977390487 0.04243217732464085 0.0024981086070143886 0.021954409489005761 0.052622520619765981 -0.0092659378443517987 -0.075129292480336257 0.021565138351164827 0.038314673359722939 -0.083370005407391284 0.01611242758639107 0.0067307823591456432 -0.046386702643700435 -0.079761515047532275 0.058683976109983355 0.049101827368188813 -0.028657801068584156 -0.063631776365136519 -0.062438475879611148 0.01330087584781104 -0.074134887671360325 0.048390688171458196 -0.043467383578885049 0.022662497612271966 -0.035031578811064307 -0.068487225349505285 0.029489611219462628 0.012965935900864185 -0.060005331938931906 -0.054665149433747763 0.029328424090510386
leaf_weight=99.526583969593048 151.33727438747883 531.6326864361763 184.43205235898495 197.02722312510014 1008.7284148782492 227.96943560242653 3682.5982891768217 7103.8911734595895 70.808958426117897 628.57442420721054 3336.1640284731984 4240.630892701447 250.9846183732152 119.21312856674194 373.50302352011204 525.65009994059801 520.01909793913364 550.87108726799488 746.91064517945051 309.97768215090036 115.03410775959492 3872.3779305592179 5346.3214456886053 399.46817895770073 509.77934284508228 587.81376668810844 1088.1606030911207 448.72753445059061 404.92074952274561 480.16030083596706
leaf_count=139 296 2134 595 311 4339 1867 11124 13174 584 1996 12131 30433 2000 254 826 2862 3863 3884 2838 2757 254 25508 14591 2392 4235 1503 3839 3183 2783 1297
internal_value=-1.11466e-05 -0.0178857 0.0150385 -0.00928922 0.0191799 0.0249027 0.0023163 0.028531 -0.0248328 -0.0293922 -0.00162986 -0.0437958 0.016382 -0.0351785 0.0279901 -0.0146775 -0.0412245 -0.0142713 -0.0183397 -0.0245773 -0.0357216 -0.0408173 0.0175945 -0.0152581 -0.0430965 0.00338343 -0.0278205 -0.0179998 -0.00537548 -0.00097596
internal_weight=38113.2 17421.5 20691.7 13081.3 18733.3 14692.7 7489.41 13458.9 5591.93 5147.62 4040.62 4340.16 4052.8 370.198 444.312 1233.78 704.451 3436.62 3239.59 1958.38 4519.04 3987.41 6355.05 1648.4 661.117 987.282 2492.68 1941.81 1493.08 1005.81
internal_count=157992 92090 65902 61518 54719 38130 30216 32104 31302 29892 16589 30572 13378 2254 1410 6026 4458 16838 16527 11183 27896 25762 18930 8426 4531 3895 13689 9805 6622 4159
is_linear=0
shrinkage=0.05


Tree=11
num_leaves=31
num_cat=0
split_feature=6 11 11 1 10 2 10 10 10 10 10 10 1 11 10 9 9 10 9 9 9 9 9 9 9 9 9 11 9 9
split_gain=3725.8 1436.32 1234.85 827.266 793.619 759.453 541.118 460.419 457.135 1303.9 546.061 504.574 668.207 456.896 442.12 501.103 484.389 481.79 692.562 477.926 440.762 425.248 383.455 534.758 437.148 429.799 446.278 391.899 381.977 486.195
threshold=1.0000000180025095e-35 2.2577092511013221 1.101321585903084 -2.2499999999999996 0.51972456038539816 5.5550000000000006 0.99992591960455823 0.98927755889796032 0.98367285631203072 0.94415253529446119 0.7987497853924842 0.80898702767051955 -8.2499999999999982 2.8083700440528641 0.83824865459667641 0.81650780615488772 0.94832645186114817 0.8977101403255705 -0.28022029520735747 0.78562075391377639 1.0000000180025095e-35 0.017213356155834299 0.75263894808755893 0.74119455533027045 0.65513208963863001 0.54522024235295974 -0.75263894808755871 2.5330396475770929 0.12874340850630878 0.60160177853794483
decision_type=2 2 2 2 2 2 2 2 2 2 2 2 2 2 2 2 2 2 2 2 2 2 2 2 2 2 2 2 2 2
left_child=1 -1 -2 6 -5 14 7 8 9 10 -4 -12 -13 28 15 19 -17 -16 -19 22 -20 -22 23 24 25 26 -3 -27 -6 -30
right_child=2 5 3 4 13 -7 -8 -9 -10 -11 11 12 -14 -15 17 16 -18 18 20 -21 21 -23 -24 -25 -26 27 -28 -29 29 -31
leaf_value=-0.038782254375019309 -0.023656853912623291 0.012201158109869846 -0.012979408333386143 -0.001233541959454135 0.0070966452860964551 0.010377475429591096 0.064726107580366107 -0.047431059070002432 0.046548473201609313 -0.084698666446050994 0.075975536690138998 -0.057472893919916349 0.028318842307625859 0.040899157793451171 -0.069288213681299823 -0.070698590335660977 -0.0097657441053727641 0.012904989807712267 -0.076813237636254555 0.054387667877459168 0.048573073462605254 -0.034667069455734847 -0.088139587777243747 0.071888524894869299 -0.069474972788931319 -0.093910903008459834 -0.043707341327486687 0.046152509268376329 0.048220949484721887 0.0015926381480996033
leaf_weight=5302.4797610118985 1934.248491473496 763.35442478209734 1772.6298774331808 2351.337975487113 2686.7927922606468 3963.2234531268477 322.99428693205118 502.96170522272587 531.90386963635683 433.74130160361528 394.09751802682877 278.62273500859737 1224.1820058077574 5512.5061012804508 633.25512047111988 493.74578726291656 960.94531416147947 980.83842357993126 545.51514898240566 424.55127683281898 177.86858451366425 1116.8149760812521 125.15861338376999 244.15228706598282 242.20651447027922 54.39129664003849 670.41237284988165 610.51191741973162 1821.1727216020226 806.67843731492758
leaf_count=36555 11183 2720 8059 9432 9075 13767 239 3010 1102 3266 316 1797 3302 9219 5021 3890 4654 3690 4480 717 383 6945 1006 234 1799 429 4391 1409 3061 2841
internal_value=-1.35006e-05 -0.0171086 0.0143692 0.0183151 0.025096 -0.00753718 0.00195205 -0.00199406 0.0029363 -0.00271711 0.00697316 0.0256186 0.0124129 0.030814 -0.0163639 -0.00619413 -0.0304473 -0.0298757 -0.0210285 0.0050607 -0.0391153 -0.0232312 -0.00266638 0.00147195 -0.00587246 0.00146788 -0.013941 0.0346949 0.0203533 0.0339073
internal_weight=37883.3 17309.4 20573.9 18639.6 13178.5 12006.9 5461.13 5138.14 4635.18 4103.27 3669.53 1896.9 1502.8 10827.2 8043.72 4589.43 1454.69 3454.29 2821.04 3134.74 1840.2 1294.68 2710.19 2585.03 2340.88 2098.67 1433.77 664.903 5314.64 2627.85
internal_count=157992 92090 65902 54719 33628 55535 21091 20852 17842 16740 13474 5415 5099 24196 41768 21249 8544 20519 15498 12705 11808 7328 11988 10982 10748 8949 7111 1838 14977 5902
is_linear=0
shrinkage=0.05


Tree=12
num_leaves=31
num_cat=0
split_feature=6 11 11 0 1 9 2 10 3 1 9 0 2 9 1 9 9 11 0 10 10 10 9 9 9 9 9 9 9 9
split_gain=3384.36 1328.9 1134.01 827.985 655.635 661.853 603.069 483.906 525.459 457.965 456.264 453.812 441.259 390.054 570.552 365.899 364.571 346.438 394.122 344.441 1448.23 677.413 2329 1076.9 332.504 329.865 610.879 427.451 485.811 489.202
threshold=1.0000000180025095e-35 2.0925110132158595 1.651982378854626 -10.449999999999998 -5.6499999999999995 0.93684664338241042 4.6450000000000005 0.998148560797531 13.250000000000002 -23.249999999999996 -0.84521774858100296 -5.0499999999999989 3.7550000000000003 0.97957740588863318 16.750000000000004 1.0000000180025095e-35 0.1797599270123609 3.6894273127753308 -27.949999999999996 0.78298010367706283 0.72660752476856549 0.94415253529446119 -0.060211047012787407 0.24701303056106858 0.14579379638877302 0.077383612769883189 0.60160177853794483 0.58776348020728231 0.094533248092440667 0.32939628064323895
decision_type=2 2 2 2 2 2 2 2 2 2 2 2 2 2 2 2 2 2 2 2 2 2 2 2 2 2 2 2 2 2
left_child=1 9 10 7 16 12 -5 8 17 -1 -2 -7 -6 -8 -15 -9 24 18 -3 20 -14 -21 -23 -24 -4 -12 27 28 -27 -30
right_child=2 3 4 6 5 11 13 15 -10 -11 25 -13 19 14 -16 -17 -18 -19 -20 21 -22 22 23 -25 -26 26 -28 -29 29 -31
leaf_value=0.07210469197318202 0.062021994418601324 0.015936673730553377 0.0016810274665386229 -0.01303536870419324 0.0011339680904407219 -0.074957152650438799 0.020452433796178334 -0.079252013413386113 0.020612027040728082 -0.043063143617779943 -0.043495383621361287 0.0023445983369347217 0.025462573395844925 -0.077093026536843745 0.055965628925260594 0.04661572291507133 -0.025372176028252653 -0.064694367651724302 -0.032855581718154586 0.048875816996087625 -0.094544874607289719 -0.096100034648969157 0.042880343242269525 -0.11626022230080335 0.06756917195544361 0.076587276062669754 -0.039412815068950571 0.076435867026106413 -0.080572404344297854 0.009723109162116236
leaf_weight=88.153173714876175 184.72902161628008 471.64817449450493 1157.0443620756269 3402.1603437066078 1594.6425180882215 236.35055237263441 3670.2410011962056 68.312770865857601 511.49776385724545 4150.3913012221456 934.06717526912689 965.26002947986126 4732.8096363320947 246.7647408246994 119.61969557404518 373.04689241200686 1163.4638347327709 718.7045911103487 3378.7496283054352 4233.6950494125485 265.50001290440559 390.48112878203392 2300.2672812491655 111.45575227588415 229.45110810548067 170.84064128249884 850.04443795233965 236.84651895612478 213.89384999871254 502.16462666541338
leaf_count=87 179 1636 4503 16838 5930 1960 11124 584 1495 30485 6362 3841 11509 2000 254 826 6037 5431 21330 6266 1878 2876 3931 907 280 149 5794 165 1609 1726
internal_value=-1.38617e-05 -0.0163644 0.0137222 -0.00841648 0.018686 0.0227128 0.00247187 -0.0230845 -0.027447 -0.0406679 -0.0141747 -0.0128603 0.0258492 0.0155417 -0.0336511 0.0271342 -0.00473371 -0.0328271 -0.0268789 0.0291242 0.019088 0.0362538 0.017184 0.0355258 0.0125849 -0.0190153 -0.00743047 0.0167622 0.000826339 -0.0172491
internal_weight=37672.3 17199.3 20473 12960.7 17380.4 14830.5 7438.79 5521.96 5080.6 4238.54 3092.59 1201.61 13628.9 4036.63 366.384 441.36 2549.96 4569.1 3850.4 12034.2 4998.31 7035.9 2802.2 2411.72 1386.5 2907.86 1973.79 1123.75 886.899 716.058
internal_count=157992 92090 65902 61518 49918 39098 30216 31302 29892 30572 15984 5801 33297 13378 2254 1410 10820 28397 22966 27367 13387 13980 7714 4838 4783 15805 9443 3649 3484 3335
is_linear=0
shrinkage=0.05


Tree=13
num_leaves=31
num_cat=0
split_feature=6 11 11 1 10 3 10 10 11 0 10 10 10 10 1 9 0 10 9 11 9 9 10 10 0 0 9 9 9 9
split_gain=3075.08 1229.78 1035.69 708.42 682.188 649.665 488.541 419.081 409.304 405.696 387.955 1133.59 461.63 455.565 577.364 384.411 399.959 685.367 698.948 494.926 400.277 383.015 370.108 360.067 351.05 472.721 347.884 340.195 782.703 576.53
threshold=1.0000000180025095e-35 2.2577092511013221 1.101321585903084 -2.2499999999999996 0.51972456038539816 10.750000000000002 0.99992591960455823 0.98927755889796032 2.8083700440528641 -4.4499999999999993 0.98367285631203072 0.94415253529446119 0.7987497853924842 0.80898702767051955 -8.2499999999999982 0.90332234122743971 -6.9499999999999993 0.98367285631203072 0.12874340850630878 1.101321585903084 0.57375101487245939 0.87167402993692 0.88201535311751322 0.99962961997441069 -29.549999999999997 -17.149999999999995 0.54522024235295974 0.92425648564791574 0.93684664338241042 0.70555747466671093
decision_type=2 2 2 2 2 2 2 2 2 2 2 2 2 2 2 2 2 2 2 2 2 2 2 2 2 2 2 2 2 2
left_child=1 15 -2 6 21 9 7 10 -6 -3 11 12 24 -14 -15 16 17 -1 23 -18 -21 -5 26 -19 -4 -26 -16 29 -29 -27
right_child=2 5 3 4 8 -7 -8 -9 -10 -11 -12 -13 13 14 22 -17 19 18 -20 20 -22 -23 -24 -25 25 27 -28 28 -30 -31
leaf_value=-0.05745544962960656 -0.021929379580103305 -0.020684477892339546 0.082947283859269083 -0.10514074850715874 0.018524981518410328 0.013400870128456309 0.061999198195395233 -0.045569878887984423 0.038106150583739805 0.0023827164012117496 0.042884117984242978 -0.079510945697942037 0.071860095585538228 -0.05405110869567431 -0.066410890598651073 -0.06870668412982027 -0.031899254276594506 -0.076791112868145231 0.064625459714145059 -0.0039215188087773356 0.080218366525377491 0.0025776715600938746 0.041532867613572687 0.033088414948859744 -0.078499704030680989 0.0073143815079512887 0.044682470133062736 0.079165182233480652 -0.086839427622842691 -0.070320067900382241
leaf_weight=1962.9839106947184 1910.2302082702518 6162.8489838689566 92.350211590528488 85.654503405094147 5274.0688393265009 2983.8515516370535 314.99924183636904 501.41344580054283 5402.5056055039167 2759.6732540130615 528.20462830364704 429.30775284767151 388.37979833781719 277.17302421480417 179.42724908143282 764.40003383904696 1183.9660620838404 243.46903289109468 263.36300787329674 457.29206442832947 204.58968862891197 2257.2543215379119 921.03205536305904 107.4666134417057 264.72460623830557 673.63369905203581 116.04482391476631 271.16434105485678 96.195732183754444 370.76096851378679
leaf_count=15573 11183 34746 81 674 14977 9581 239 3010 9219 11208 1102 3266 316 1797 1153 6512 8504 2117 575 2509 365 8758 1908 400 1952 2427 241 253 788 2558
internal_value=-1.33074e-05 -0.0156481 0.0131169 0.0167466 0.0230718 -0.00679582 0.00156595 -0.00215951 0.0284333 -0.01355 0.00256372 -0.00265599 0.00638139 0.0236177 0.0110739 -0.0359657 -0.0303074 -0.0430316 0.00305975 -0.0125412 0.0220864 -0.00136041 0.0259122 -0.0431428 -0.0119583 -0.0171862 -0.0227797 -0.00568904 0.0356957 -0.0202459
internal_weight=37448.4 17093.9 20354.5 18444.3 13019.5 11906.4 5424.81 5109.81 10676.6 8922.52 4608.4 4080.19 3650.89 1882.06 1493.68 5187.53 4423.13 2577.28 614.299 1845.85 661.882 2342.91 1216.5 350.936 1768.83 1676.48 295.472 1411.75 367.36 1044.39
internal_count=157992 92090 65902 54719 33628 55535 21091 20852 24196 45954 17842 16740 13474 5415 5099 36555 30043 18665 3092 11378 2874 9432 3302 2517 8059 7978 1394 6026 1041 4985
is_linear=0
shrinkage=0.05


Tree=14
num_leaves=31
num_cat=0
split_feature=6 11 11 0 2 2 10 10 10 10 3 9 9 9 0 9 1 10 9 9 9 9 9 0 9 1 9 9 1 9
split_gain=2792.64 1142.71 947.638 713.888 581.006 528.411 520.754 1271.42 759.908 436.703 449.12 424.558 393.554 553.964 391.767 389.354 388.912 425.783 384.489 438.063 440.841 631.461 384.087 455.15 382.996 380.139 376.384 962.249 386.195 523.847
threshold=1.0000000180025095e-35 2.0925110132158595 1.651982378854626 -10.449999999999998 3.7550000000000003 4.745000000000001 0.78298010367706283 0.72660752476856549 0.82392300575755406 0.998148560797531 13.250000000000002 -0.81650780615488772 0.077383612769883189 0.60160177853794483 -30.549999999999997 0.81650780615488772 -2.7499999999999996 0.83824865459667641 0.58776348020728231 0.094533248092440667 0.32939628064323895 0.34559951088524249 0.93684664338241042 -5.0499999999999989 0.57375101487245939 5.5500000000000007 0.92425648564791574 0.90332234122743971 -0.94999999999999984 0.84521774858100318
decision_type=2 2 2 2 2 2 2 2 2 2 2 2 2 2 2 2 2 2 2 2 2 2 2 2 2 2 2 2 2 2
left_child=1 14 11 9 -4 -5 7 22 -8 10 -3 -2 25 18 -1 24 -10 -18 19 -14 -21 -22 26 -24 -7 -13 27 28 29 -6
right_child=2 3 4 5 6 15 8 -9 16 -11 -12 12 13 -15 -16 -17 17 -19 -20 20 21 -23 23 -25 -26 -27 -28 -29 -30 -31
leaf_value=0.060929620453114841 0.047390490452936342 -0.030537258446840278 -0.0058563035425757554 -0.011513536882142345 0.0068258606572534717 0.013328904789454345 0.056206015348959595 -0.079744981228995274 0.0027920344523148666 0.026481581723196951 0.018976623936024666 -0.071822144972596966 0.073641926980944586 -0.037271710223010547 -0.040259829273765251 -0.01073135418386411 -0.13902298385569406 0.030876801565193103 0.073514573519583543 -0.076331223239683055 0.076259235167468006 -0.037568628420809158 -0.073961837794257801 0.0054106895165275419 0.054177192379191032 -0.00092769013550995667 0.058717990786509779 -0.11301833497021659 0.028938405977800515 -0.10420546796388802
leaf_weight=97.980064190924168 264.8677913248539 4513.4913575202227 2375.490206874907 3530.3473655357957 953.00226356089115 2030.9015724360943 1975.7833560332656 369.89041454344988 2051.8924131542444 439.14426440000534 509.70150997489691 550.98707468807697 169.56739217042923 838.17029510438442 4026.8415180817246 1053.8586746454239 37.206712119281292 4147.5091021209955 233.86427785456181 211.39943395555019 208.53354518860579 293.07477511465549 229.26828349381685 851.11310137063265 799.82795704901218 287.87830828130245 596.11928578466177 139.0958059206605 3336.8807062059641 119.55877640098333
leaf_count=139 435 28397 9803 17405 3337 6638 2207 2522 7857 1410 1495 4659 149 5794 30433 4899 316 8599 165 1609 135 1591 1929 3254 1274 1447 773 1113 7250 958
internal_value=-1.40417e-05 -0.014953 0.0125343 -0.00761667 0.0170986 0.00248768 0.0207811 0.0103176 0.0291838 -0.021333 -0.0255131 -0.0131092 -0.0188456 -0.00655094 -0.0378562 0.0152121 0.0206231 0.0293662 0.0165128 0.00140847 -0.0157701 0.00975301 0.0156691 -0.011433 0.0248707 -0.0474929 0.0213606 0.0164646 0.0205492 -0.00555084
internal_weight=37243.2 17002.1 20241.2 12877.3 17182.8 7414.94 14807.3 6594.93 8212.39 5462.34 5023.19 3058.34 2793.48 1954.61 4124.82 3884.59 6236.61 4184.72 1116.44 882.575 713.008 501.608 6225.04 1080.38 2830.73 838.865 5144.66 4548.54 4409.44 1072.56
internal_count=157992 92090 65902 61518 49918 30216 40115 21136 18979 31302 29892 15984 15549 9443 30572 12811 16772 8915 3649 3484 3335 1726 18614 5183 7912 6106 13431 12658 11545 4295
is_linear=0
shrinkage=0.05


Tree=15
num_leaves=31
num_cat=0
split_feature=6 11 11 3 10 9 10 1 9 1 11 9 9 9 9 10 9 11 10 1 9 2 0 9 9 11 10 10 9 1
split_gain=2557.83 1090.5 948.682 766.484 652.04 931.984 815.748 733.823 588.902 529.656 531.863 612.03 598.032 726.103 487.599 802.741 622.86 659.297 444.976 711.934 485.532 463.351 461.666 439.83 625.084 434.839 429.618 702.751 596.634 566.126
threshold=0.25000000000000006 2.0925110132158595 1.101321585903084 12.550000000000002 0.83824865459667641 0.81650780615488772 0.8977101403255705 5.1500000000000012 0.94832645186114817 -3.7499999999999996 2.8083700440528641 0.98591162957303935 0.93068945620106103 0.99788019713185994 -0.28022029520735747 0.998148560797531 -0.31309544317432719 2.8083700440528641 0.53435276464917691 -0.74999999999999989 0.077383612769883189 4.8650000000000011 -30.549999999999997 0.78562075391377639 0.75263894808755893 2.2577092511013221 0.78827585631460517 0.67123509350548771 0.57375101487245939 -6.4499999999999993
decision_type=2 2 2 2 2 2 2 2 2 2 2 2 2 2 2 2 2 2 2 2 2 2 2 2 2 2 2 2 2 2
left_child=1 18 -2 4 5 23 -6 14 -7 25 12 -12 -11 -14 16 -16 -8 -18 -1 22 -21 -22 -20 24 26 -4 27 -3 29 -28
right_child=2 3 9 -5 6 8 7 -9 -10 10 11 -13 13 -15 15 -17 17 -19 19 20 21 -23 -24 -25 -26 -27 28 -29 -30 -31
leaf_value=-0.065837494330598656 -0.024356500763778967 0.021359007292192134 -0.042314622106146414 0.019824643230928501 -0.06967393373993927 -0.061611473121341957 -0.027945655912254366 0.034271146937611706 -0.0090208846399239036 0.016062180565765385 0.033503937071488195 -0.083737207460600524 -0.084644438135133893 0.034663887214095405 -0.053937329208801843 0.011730047752248609 0.077956305560268779 -0.089273648913901368 0.057484586862912558 -0.028513146119374201 -0.04751310857791019 0.039945842542368645 -0.054051375383458701 0.050671947152322205 -0.086667854163414187 0.0073412886970227083 0.046000561645861908 -0.028551069021542693 0.061975502128611651 -0.045305876274197063
leaf_weight=868.67253502458334 1490.6981798186898 1487.1247759088874 526.08357349783182 2429.404194265604 844.9992656186223 824.35929694026709 628.5749649554491 622.57088934630156 1502.5617874339223 5540.5578826293349 6653.080258987844 113.20887853950262 333.7340237274766 206.39098583161831 1802.8840302154422 627.3242271989584 356.46051845699549 70.61296983808279 97.903673768043518 1030.1814405322075 191.7195538058877 720.81805318593979 1771.5630094856024 602.92026051133871 177.89960531145334 2722.4348455742002 318.97265615314245 1341.514431424439 752.57578886300325 362.92405063658953
leaf_count=7692 9128 4583 3535 7035 6863 6130 3552 1643 7477 16227 12792 942 2755 550 13238 2414 418 568 144 7335 1517 2689 14470 1114 1465 9775 1002 7621 1067 2251
internal_value=-1.31596e-05 -0.0125152 0.0138029 -0.00584395 -0.0109038 -0.00147582 -0.024933 -0.0157309 -0.0276522 0.0173371 0.021898 0.0315423 0.0111663 -0.0390547 -0.0246613 -0.0369862 0.00371196 0.0503063 -0.0335425 -0.0261836 -0.00498745 0.0215712 -0.0482103 0.0106001 0.00515992 -0.000700272 0.00899189 -0.00231142 0.0312809 -0.00259522
internal_weight=37020.7 19434.5 17586.2 14753.7 12324.3 7370.85 4953.43 4108.43 2326.92 16095.5 12847 6766.29 6080.68 540.125 3485.86 2430.21 1055.65 427.073 4680.86 3812.19 1942.72 912.538 1869.47 5043.93 4441.01 3248.52 4263.11 2828.64 1434.47 681.897
internal_count=157992 102288 55704 68441 61406 32710 28696 21833 13607 46576 33266 13734 19532 3305 20190 15652 4538 986 33847 26155 11541 4206 14614 19103 17989 13310 16524 12204 4320 3253
is_linear=0
shrinkage=0.05


Tree=16
num_leaves=31
num_cat=0
split_feature=6 11 11 3 10 9 10 1 9 9 1 9 10 1 9 0 2 5 9 10 9 11 11 0 1 1 9 9 11 10
split_gain=2325.11 1004.63 860.985 703.764 585.242 789.641 716.743 557.341 486.976 484.352 524.161 450.263 421.365 661.968 440.597 424.611 418.165 413.308 408.606 713.774 487.71 560.885 428.997 400.533 561.185 393.187 364.591 433.997 338.198 334.989
threshold=0.25000000000000006 2.0925110132158595 1.101321585903084 11.250000000000002 0.83824865459667641 0.81650780615488772 0.8977101403255705 5.1500000000000012 0.94832645186114817 0.93684664338241042 -3.2499999999999996 0.54522024235295974 0.53435276464917691 -0.74999999999999989 0.077383612769883189 -30.549999999999997 4.8650000000000011 0.15000000000000005 -0.28022029520735747 0.998148560797531 -0.31309544317432719 2.8083700440528641 3.0837004405286348 -16.949999999999996 -18.349999999999998 -6.1499999999999995 0.92425648564791574 0.79615337246572693 2.8083700440528641 0.99992591960455823
decision_type=2 2 2 2 2 2 2 2 2 2 2 2 2 2 2 2 2 2 2 2 2 2 2 2 2 2 2 2 2 2
left_child=1 12 -2 4 5 11 -6 18 -7 10 26 -3 -1 15 -15 -14 -16 -11 20 -20 22 -22 -8 24 -13 -21 27 29 -12 -4
right_child=2 3 9 -5 6 8 7 -9 -10 17 28 23 13 14 16 -17 -18 -19 19 25 21 -23 -24 -25 -26 -27 -28 -29 -30 -31
leaf_value=-0.064195603436634538 -0.023237434223748601 -0.0084372561096545083 -0.0020611166599363009 0.013894297807949998 -0.069185379359630886 -0.061132083952333875 -0.074767893214271686 0.029667239018718112 -0.010090785876541395 -0.069744473598241721 0.015140394413404349 0.042595011489364967 0.055045478816539185 -0.027356574078375787 -0.045917509789809047 -0.052367755915557659 0.037652505879797044 0.001920232843702358 -0.053515512487405763 0.036379236611664291 0.073045711676541406 -0.085669197275310083 0.010216059468077649 0.033047478213351716 -0.063680774555496159 -0.054640635514698846 0.071277020092896756 -0.07749071473765462 0.032388301144387475 0.059141901574885303
leaf_weight=846.89950869232416 1484.5232009291649 1994.1452513486147 2926.1887063756585 3523.7625766322017 779.4170136526227 719.43833954632282 258.57295016944408 556.82700913399458 1333.4454536885023 266.57953050732613 5451.9621626809239 222.6122300028801 97.148848794400692 1020.3046053126454 188.54417174309492 1737.9533620625734 726.33720112591982 820.18552489578724 1628.8601160421968 422.01525922119617 322.85812225192785 67.261141322553158 348.83035074919462 2055.2038833573461 281.02639142423868 165.05476122349501 180.58121533691883 178.61458273231983 5937.0764468759298 242.07160709053278
leaf_count=7692 9128 9418 12172 11189 6583 5579 1997 1564 6770 2175 15984 519 144 7335 1517 14470 2689 3396 12398 1191 395 549 1443 5584 2163 1099 187 1370 11100 192
internal_value=-1.62842e-05 -0.0119834 0.0131885 -0.00558499 -0.011738 -0.00223375 -0.0255376 -0.0165144 -0.0279783 0.0165676 0.0189155 0.00937415 -0.0323256 -0.0251668 -0.00476497 -0.0466814 0.0204299 -0.0156589 -0.0245168 -0.0364792 0.00205701 0.0456814 -0.0259618 0.0232548 -0.016706 0.010789 0.00207392 -0.00165994 0.0241317 0.00261511
internal_weight=36784.3 19296.5 17487.8 14679.3 11155.6 6605.87 4549.7 3770.28 2052.88 16003.3 14916.5 4552.99 4617.19 3770.29 1935.19 1835.1 914.881 1086.77 3213.45 2215.93 997.523 390.119 607.403 2558.84 503.639 587.07 3527.46 3346.87 11389 3168.26
internal_count=157992 102288 55704 68441 57252 30033 27219 20636 12349 46576 41005 17684 33847 26155 11541 14614 4206 5571 19072 14688 4384 944 3440 8266 2682 2290 13921 13734 27084 12364
is_linear=0
shrinkage=0.05


Tree=17
num_leaves=31
num_cat=0
split_feature=6 11 3 11 3 10 10 10 9 6 9 9 0 9 9 9 9 11 5 9 9 9 9 9 9 9 9 9 9 11
split_gain=2114.89 948.353 762.883 720.443 509.598 470.268 1196.33 665.98 385.672 378.279 498.38 638.26 501.559 500.571 386.712 365.922 482.542 363.432 362.041 361.017 347.451 382.037 394.324 566.385 344.159 417.556 713.78 512.683 523.831 404.334
threshold=1.0000000180025095e-35 0.7709251101321587 9.9500000000000011 1.651982378854626 6.2500000000000009 0.78298010367706283 0.72660752476856549 0.82392300575755406 -0.81650780615488772 4.1500000000000012 1.0000000180025095e-35 -0.28022029520735747 -19.349999999999998 -0.060211047012787407 -0.043020639422999989 0.077383612769883189 0.60160177853794483 2.2577092511013221 3.4500000000000006 0.36170033253352241 0.58776348020728231 0.094533248092440667 0.32939628064323895 0.34559951088524249 -0.84521774858100296 0.53071038945192506 0.81650780615488772 0.34559951088524249 0.32939628064323895 3.0837004405286348
decision_type=2 2 2 2 2 2 2 2 2 2 2 2 2 2 2 2 2 2 2 2 2 2 2 2 2 2 2 2 2 2
left_child=1 -1 17 8 -5 6 -6 -7 -2 10 11 -9 -13 -14 -15 18 20 -3 -10 -12 21 -17 -23 -24 -19 27 -27 28 -26 -28
right_child=3 2 -4 4 5 7 -8 9 15 -11 19 12 13 14 -16 16 -18 24 -20 -21 -22 22 23 -25 25 26 29 -29 -30 -31
leaf_value=-0.050163787266681352 0.046246391853037139 -0.035367802171753934 0.0070004613067909012 -0.011758350785368007 0.013386775906083257 0.051493237124664207 -0.074400152868700317 0.015159770682327881 -0.062257294615639239 0.037125376767744307 0.031255428138709879 0.042705368154563918 -0.10432291323526638 0.044069942195411438 -0.10751919415068033 0.069962829799076295 -0.03433803299628168 0.049228526741523372 0.019731847964918128 -0.010638556780678085 0.071026643532849196 -0.072083937663123002 0.073542885758790436 -0.034767958376669773 -0.021562578065438282 0.020207608227947225 -0.055001826583302119 -0.074425795708865303 0.07623620213246049 -0.0019342777524731494
leaf_weight=1569.159924916923 262.86546880751848 2144.6367673948407 4854.5631102770567 1611.2066472619772 6486.2568159252405 1934.1104174554348 412.78842544555664 896.11375539004803 646.77928030490875 1852.9994015619159 2379.8019272536039 121.59409090876579 359.67154137790203 131.2242109850049 61.925953477621078 166.91510028392076 817.59796457737684 221.65932303667068 170.04198927432299 655.98564881086349 229.98804392665625 207.39679301530123 205.65124797075987 292.19382452964783 3975.3024116158485 1847.846368059516 673.7690642029047 449.61360342800617 141.80313325673342 768.17174543440342
leaf_count=13730 435 16215 19120 7033 19952 2340 2780 2559 5481 3355 5267 274 2888 207 504 149 5794 359 625 2759 165 1609 135 1591 23129 6314 4985 4091 275 3872
internal_value=-1.91899e-05 -0.0131705 -0.00932052 0.0109803 0.0149875 0.0178054 0.00813425 0.0257547 -0.0116026 0.0180478 0.0103735 -0.0124923 -0.0492344 -0.0694567 -0.00453111 -0.0171594 -0.00523317 -0.017071 -0.0451892 0.0222028 0.0163575 0.00194125 -0.0141579 0.00997339 -0.0122134 -0.0139469 -0.00036593 -0.0237304 -0.0181942 -0.0267309
internal_weight=36549.6 16646.5 15077.4 19903.1 16903.7 15292.5 6899.05 8393.43 2999.43 6459.32 4606.32 1570.53 674.416 552.822 193.15 2736.56 1919.74 10222.8 816.821 3035.79 1102.15 872.157 705.242 497.845 8078.17 7856.51 3289.79 4566.72 4117.11 1441.94
internal_count=157992 92090 78360 65902 49918 42885 22732 20153 15984 17813 14458 6432 3873 3599 711 15549 9443 59240 6106 8026 3649 3484 3335 1726 43025 42666 15171 27495 23404 8857
is_linear=0
shrinkage=0.05


Tree=18
num_leaves=31
num_cat=0
split_feature=6 11 0 11 2 9 9 9 1 10 10 1 9 3 0 5 9 1 2 11 11 1 9 9 11 10 9 9 2 1
split_gain=1937.02 865.117 812.445 721.557 473.888 436.228 497.425 889.985 584.031 415.689 390.17 572.138 529.726 382.4 400.748 379.334 373.521 668.204 356.884 345.297 330.592 637.407 391.343 320.34 302.856 302.096 316.349 327.502 322.626 327.762
threshold=0.25000000000000006 1.651982378854626 -10.449999999999998 1.101321585903084 4.6450000000000005 0.93684664338241042 0.92425648564791574 0.90332234122743971 -2.2499999999999996 0.99992591960455823 0.53435276464917691 -0.74999999999999989 0.077383612769883189 18.350000000000005 -31.749999999999996 0.15000000000000005 0.97957740588863318 16.450000000000003 4.8650000000000011 2.2577092511013221 2.8083700440528641 19.550000000000004 0.98591162957303935 0.79615337246572693 2.8083700440528641 0.99962961997441069 -0.77485533897735703 -0.78562075391377661 9.1750000000000025 -17.649999999999995
decision_type=2 2 2 2 2 2 2 2 2 2 2 2 2 2 2 2 2 2 2 2 2 2 2 2 2 2 2 2 2 2
left_child=1 10 25 -2 -4 6 7 8 9 19 -1 13 -13 14 -12 -7 -6 -18 -14 -5 21 -17 -22 -21 -10 26 27 -3 29 -28
right_child=3 2 4 5 16 15 -8 -9 24 -11 11 12 18 -15 -16 20 17 -19 -20 23 22 -23 -24 -25 -26 -27 28 -29 -30 -31
leaf_value=-0.067564572003933426 -0.021538484676503503 -0.069666172582342367 -0.0093273790393294809 -0.036459835583533232 0.018140789404869292 -0.067791426761346016 0.059098008521360115 -0.10790624566304548 0.014398249686747659 0.058885187467112278 0.074129461720237474 -0.034213585505450908 -0.042225788753688043 0.11767071727493539 -0.060483980428513717 -0.07351317467873103 -0.072055757796970252 0.056278655946648298 0.037110031273059695 0.0066937756150781116 0.053867013433007628 0.057848000329396555 -0.085949262100678159 -0.072804079379461525 0.031960116453215233 0.030711231267225466 0.0029103917801148946 0.096163860862395534 0.023092970026332694 -0.031458110552663891
leaf_weight=659.36390512436628 1459.7056788876653 41.17025501281023 3843.9051284566522 658.37833299487829 4655.8185903429985 262.19588267803192 683.66865579038858 144.77273435145617 4831.8684239014983 286.87529744952917 57.908500000834465 859.2662593498826 177.79941074550152 33.126419238746166 1221.9924016222358 278.39756385236979 304.16385462880135 152.17454237490892 699.16699048876762 3017.4199464246631 344.73665832728148 138.18379370123148 58.547060444951057 132.27365602552891 4990.3089086040854 287.12393935024738 811.27543533593416 107.55299192667007 348.68482469767332 4786.9671779572964
leaf_count=6462 9128 291 18981 4179 14396 2175 851 1156 14053 215 30 6743 1475 51 11184 2165 2511 311 2599 10555 547 209 475 930 9066 801 3641 32 990 31790
internal_value=-1.95109e-05 -0.0110177 -0.00577808 0.0120985 0.00393634 0.0152006 0.0174493 0.0154244 0.0167073 0.000844018 -0.0326887 -0.0251472 -0.00631263 -0.0500524 -0.0543935 -0.0154418 0.0139095 -0.0292603 0.0210252 -0.00352842 0.00129976 -0.0299395 0.0335691 0.00335521 0.0233208 -0.019409 -0.0217698 0.050258 -0.0235711 -0.0264776
internal_weight=36334.8 19047.5 15338.8 17287.3 8956.06 15827.6 14745.6 14061.9 13917.1 4094.95 3708.62 3049.26 1736.23 1313.03 1279.9 1082.06 5112.16 456.338 876.966 3808.07 819.865 416.581 403.284 3149.69 9822.18 6382.77 6095.65 148.723 5946.93 5598.24
internal_count=157992 102288 73744 55704 36199 46576 41005 40154 38998 15879 28544 22082 10817 11265 11214 5571 17218 2822 4074 15664 3396 2374 1022 11485 23119 37545 36744 323 36421 35431
is_linear=0
shrinkage=0.05


Tree=19
num_leaves=31
num_cat=0
split_feature=6 11 0 11 2 9 9 9 1 11 10 1 9 10 5 2 0 0 11 1 9 9 9 9 3 9 10 10 10 10
split_gain=1760.71 801.923 737.959 655.296 437.562 396.561 455.773 823.57 509.684 377.689 372.625 536.376 482.697 361.348 350.086 345.946 379.521 333.115 327.511 387.194 326.152 561.18 399.576 340.438 322.662 317.954 310.036 327.008 864.804 458.742
threshold=0.25000000000000006 1.651982378854626 -10.449999999999998 1.101321585903084 5.5950000000000006 0.93684664338241042 0.92425648564791574 0.84521774858100318 -2.2499999999999996 3.0837004405286348 0.53435276464917691 -0.74999999999999989 0.077383612769883189 0.99992591960455823 0.15000000000000005 10.385000000000003 -31.749999999999996 5.3500000000000005 3.0837004405286348 -0.24999999999999997 0.81650780615488772 0.57375101487245939 -0.84521774858100296 0.99788019713185994 8.2500000000000018 0.99884271619762399 0.98927755889796032 0.98367285631203072 0.94415253529446119 0.7987497853924842
decision_type=2 2 2 2 2 2 2 2 2 2 2 2 2 2 2 2 2 2 2 2 2 2 2 2 2 2 2 2 2 2
left_child=1 10 -3 -2 9 6 7 8 13 20 -1 15 -13 26 -7 16 -12 18 -9 -20 21 22 -4 -22 -14 -25 27 28 29 -5
right_child=3 2 4 5 -6 14 -8 17 -10 -11 11 12 24 -15 -16 -17 -18 -19 19 -21 23 -23 -24 25 -26 -27 -28 -29 -30 -31
leaf_value=-0.066277854417845672 -0.020549523060840885 -0.018550542285652012 0.046057639341487787 -0.0212906212571339 0.016682955868905457 -0.065712923934281506 0.056771173688918236 -0.087872790569961501 0.023896365060140569 0.017132990432239353 0.071671641489024024 -0.032955903308256866 -0.034193489088718769 0.057281267624635424 0.0012415104853258779 0.07048796952917602 -0.060542942485217077 0.065155641780746121 -0.093665480033084794 0.025050817449507587 -0.062480001914942677 0.028471605595473654 -0.026185154745198592 0.074662175388167731 0.036900273866288483 -0.08026424851775088 -0.042199955710714408 0.042201553441724243 -0.077659069264772909 0.023457625028734087
leaf_weight=639.07152633368969 1453.6159580647945 6345.6700094565749 210.79716175049543 894.54804392904043 3775.3628387600183 257.09454422444105 676.29271505028009 301.0002363473177 9307.3612018451095 1339.5782076045871 56.924503311514854 847.75284404307604 209.62404749542475 280.32974569499493 811.40002717077732 58.087852269411087 1167.0649009346962 68.995393112301826 103.10446514189243 205.72764667123556 554.75345619767904 828.83398666977882 2080.4359967112541 98.799945987761021 668.74559434503317 49.814724266529083 417.18191233277321 469.31106839329004 340.00734025239944 1592.062423184514
leaf_count=6462 9128 37545 367 4462 11832 2175 851 2229 21410 4786 30 6743 1647 215 3396 189 11046 69 791 471 4417 2176 12061 136 2427 424 2504 927 2642 4434
internal_value=-2.09769e-05 -0.0105382 -0.00551115 0.0115697 0.00374598 0.0145389 0.0166828 0.0147435 0.0174851 -0.00571395 -0.0316041 -0.0242379 -0.00604206 0.0025427 -0.0148687 -0.0487359 -0.054394 -0.038976 -0.0507573 -0.014583 -0.0137186 -0.00678495 -0.0195387 -0.0444756 0.0199337 0.0227318 -0.00158992 0.0035503 -0.00286708 0.00735962
internal_weight=36109.4 18931.3 15284 17178 8938.38 15724.4 14655.9 13979.6 13300.8 5163.01 3647.27 3008.2 1726.12 3993.44 1068.49 1282.08 1223.99 678.828 609.832 308.832 3823.44 3120.07 2291.23 703.368 878.37 148.615 3713.11 3295.93 2826.62 2486.61
internal_count=157992 102288 73744 55704 36199 46576 41005 40154 36594 24367 28544 22082 10817 15184 5571 11265 11076 3560 3491 1262 19581 14604 12428 4977 4074 560 14969 12465 11538 8896
is_linear=0
shrinkage=0.05


Tree=20
num_leaves=31
num_cat=0
split_feature=6 11 3 0 9 9 9 1 11 9 11 9 9 0 9 1 11 0 10 10 10 9 10 0 0 10 9 2 9 9
split_gain=1603.84 804.266 651.833 634.062 559.331 463.811 852.046 491.686 580.651 526.958 472.025 382.836 576.5 432.617 407.879 378.083 447.234 569.72 366.332 406.082 973.674 821.27 458.957 428.019 361.705 458.063 344.746 340.361 338.225 750.267
threshold=1.0000000180025095e-35 0.7709251101321587 13.250000000000002 -10.449999999999998 0.93684664338241042 0.92425648564791574 0.90332234122743971 -0.34999999999999992 2.8083700440528641 0.84521774858100318 1.651982378854626 0.077383612769883189 -0.68074819302830647 -7.9499999999999993 0.60160177853794483 20.050000000000004 2.8083700440528641 -3.0499999999999994 0.99992591960455823 0.94415253529446119 0.98367285631203072 0.025817483889290217 0.93834263341299773 -19.349999999999998 -28.649999999999995 0.998148560797531 0.98591162957303935 5.5950000000000006 -0.45588980632163084 -0.40934079590914529
decision_type=2 2 2 2 2 2 2 2 2 2 2 2 2 2 2 2 2 2 2 2 2 2 2 2 2 2 2 2 2 2
left_child=1 -1 3 24 5 6 7 9 11 10 -2 12 -9 -14 -13 16 -6 -18 19 22 -21 23 -12 -22 -3 -26 -19 -5 -15 -30
right_child=4 2 -4 27 15 -7 -8 8 -10 -11 18 14 13 28 -16 -17 17 26 -20 20 21 -23 -24 -25 25 -27 -28 -29 29 -31
leaf_value=-0.046748476664470705 -0.03502244736391065 0.011931835820199327 0.019944065776815664 -0.0099940204652308427 -0.060807353977251948 0.051020873010700879 -0.095270723129053644 0.018114976969212493 0.033666627127350982 -0.082610970626826249 0.0081803782363149245 0.033690583856727553 0.035185081098171665 -0.084965953504938282 -0.0032874618780823783 0.053481562224717866 -0.059533696918414772 0.054895585818086456 0.056662774157905285 -0.072501991859907494 0.029084740906091408 0.033990920016259404 0.061367639657052345 -0.077567289857364802 -0.033615452922934309 0.021589485448140662 -0.085606052096053153 0.012690864662553258 0.052431761098735818 -0.055907517592666468
leaf_weight=1478.7963951081038 702.97717726230621 601.68628934770823 1820.3293109238148 4955.89501722157 603.89963468909264 730.48827419430017 188.86351580172777 1304.8082195445895 3953.4327249601483 180.34763786196709 3791.1570911481977 2067.5110556930304 219.24704019725323 320.20981980860233 1166.4677627012134 152.54757675528526 251.82635735720396 340.85398951172829 366.48261468112469 517.06970399618149 131.57072377204895 959.49735370278358 454.19073760509491 330.07918624579906 4593.9937313720584 409.23147970438004 50.073094926774502 2481.4194258973002 227.18952795118093 538.76156883686781
leaf_count=13730 4768 2250 5667 26098 5015 1113 1559 3961 6774 1431 12653 4334 489 2541 4778 260 1988 452 295 3731 363 2064 449 2402 33455 1470 403 9420 382 3697
internal_value=-2.21878e-05 -0.0115829 -0.00808394 -0.0119959 0.0096413 0.0119895 0.0103527 0.0115105 0.0188673 0.0018137 0.00391294 0.00885595 -0.00538845 -0.0288811 0.0203529 -0.0208193 -0.0299112 -0.000882663 0.00809164 0.00521296 -0.0137503 0.00762592 0.0138706 -0.0471713 -0.0246953 -0.0291 0.036899 -0.00242533 -0.0418131 -0.0237729
internal_weight=35890.9 16341.4 14862.6 13042.2 19549.6 18150.4 17419.9 17231 9797.63 7433.37 7253.02 5844.19 2610.22 1305.41 3233.98 1399.2 1246.65 642.753 6550.05 6183.56 1938.22 1421.15 4245.35 461.65 5604.91 5003.23 390.927 7437.31 1086.16 765.951
internal_count=157992 92090 78360 72693 65902 57784 56671 55112 26956 28156 26725 20182 11070 7109 9112 8118 7858 2843 21957 21662 8560 4829 13102 2765 37175 34925 855 35518 6620 4079
is_linear=0
shrinkage=0.05


Tree=21
num_leaves=31
num_cat=0
split_feature=6 11 11 10 10 9 9 9 9 9 9 1 9 9 10 9 9 9 9 11 1 9 11 11 10 9 0 9 9 9
split_gain=1459.7 714.232 559.063 541.19 1093.92 609.011 764.4 1075.71 916.416 738.076 522.865 691.332 451.254 594.739 489.934 641.426 691.6 523.719 850.422 597.25 530.774 434.494 418.028 401.906 401.505 396.984 386.457 506.043 569.375 372.876
threshold=0.25000000000000006 2.0925110132158595 1.101321585903084 0.81898454963288581 0.7987497853924842 -0.44050246714542113 -0.28022029520735747 -0.060211047012787407 0.1797599270123609 -0.29670182876844958 -0.40934079590914529 -15.649999999999997 0.81650780615488772 0.895806108055896 0.62541057298524605 -0.78562075391377661 -0.81650780615488772 0.75263894808755893 0.74119455533027045 2.5330396475770929 -9.2499999999999982 0.53071038945192506 2.8083700440528641 3.41409691629956 0.76110425866077458 0.90332234122743971 -8.6499999999999968 0.34559951088524249 0.32939628064323895 0.94832645186114817
decision_type=2 2 2 2 2 2 2 2 2 2 2 2 2 2 2 2 2 2 2 2 2 2 2 2 2 2 2 2 2 2
left_child=1 -1 -2 4 12 -5 9 -8 -9 10 -7 -12 14 -14 15 16 -3 18 19 -16 -21 26 -11 -23 -22 -15 -10 28 -28 -27
right_child=2 3 -4 5 -6 6 7 8 21 22 11 -13 13 25 17 -17 -18 -19 -20 20 24 23 -24 -25 -26 29 27 -29 -30 -31
leaf_value=-0.027489738901769679 -0.01925635111386878 0.017691846341071914 0.01337212575312198 -0.062889315844808863 0.054028969962501644 0.043632098768776051 -0.080715183020145576 0.017942662059907941 -0.066134861368467218 0.083559565909683192 0.033830438029956361 -0.075020071665423363 -0.067032561772260413 0.062075894681430925 -0.074426044317425208 0.054375737819097769 -0.094137136630492446 -0.086902651871130374 0.064833095679888764 -0.076046126588418764 -0.012549315530461805 -0.041147225737373394 -0.085185308312969638 0.064357021776435527 0.039290139620815075 -0.059747860886593555 -0.052105214887423396 -0.084213670008448233 0.089286965516129468 -0.0042839699968524594
leaf_weight=4315.7103692963719 1434.2345647439361 699.70875842869282 15508.698335416615 615.48552376776934 963.13580675423145 351.49206726998091 648.70394131541252 1533.0184009447694 934.25587420910597 456.68635764718056 238.2024125084281 376.31939915567636 511.18094584345818 188.40806427598 336.36984957009554 992.1811336055398 172.30211597681046 188.14878623187542 416.61721915006638 211.38156118243933 923.7723206654191 173.75667098164558 39.908771879971027 187.8573816344142 627.06156805157661 364.09531674534082 124.05636192858219 149.1369342431426 167.11680989712477 1806.7318230047822
leaf_count=33847 9128 2082 46576 4929 1743 856 5808 5631 8202 270 745 2988 4092 333 2612 1607 1347 1586 435 1799 4469 1128 331 373 1484 2715 824 1198 95 8759
internal_value=-2.18545e-05 -0.00964823 0.0106101 -0.00430001 0.00388973 -0.0157748 -0.0103853 -0.0219001 -0.0102295 0.0204595 -0.00500684 -0.0328272 -0.00260276 -0.0181382 0.00716027 0.0268801 -0.00440463 -0.00643825 -0.000419138 -0.0133732 -0.0017195 -0.035105 0.0699984 0.0136619 0.00841136 -0.0075441 -0.0479343 -0.00931616 0.0290458 -0.0135865
internal_weight=35655.7 18712.8 16942.9 14397.1 8401.1 5996 5380.51 3917.9 3269.2 1462.61 966.014 614.522 7437.96 2870.42 4567.54 1864.19 872.011 2703.35 2515.2 2098.59 1762.22 1736.18 496.595 361.614 1550.83 2359.24 1374.57 440.31 291.173 2170.83
internal_count=157992 102288 55704 68441 35063 33378 28449 23259 17451 5190 4589 3733 33320 15899 17421 5036 3429 12385 10799 10364 7752 11820 601 1501 5953 11807 10319 2117 919 11474
is_linear=0
shrinkage=0.05


Tree=22
num_leaves=31
num_cat=0
split_feature=3 6 11 11 1 0 9 9 9 9 9 9 9 9 9 9 9 1 10 9 1 10 9 9 9 9 11 9 9 9
split_gain=1341.44 1032.38 779.636 596.258 570.62 592.288 546.094 470.734 438.464 397.168 1120.63 750.423 679.787 621.403 431.689 583.065 749.333 378.033 372.744 878.06 461.031 433.382 366.462 363.596 833.342 620.093 636.528 394.852 360.862 1483.4
threshold=11.250000000000002 2.0500000000000003 0.7709251101321587 1.651982378854626 -7.8499999999999988 -21.949999999999996 0.98591162957303935 0.62873952466552263 -0.81650780615488772 0.81650780615488772 0.53071038945192506 0.34559951088524249 0.32939628064323895 0.895806108055896 -0.68074819302830647 -0.44050246714542113 -0.40934079590914529 15.050000000000002 0.98367285631203072 0.077383612769883189 1.3500000000000003 0.53435276464917691 0.90332234122743971 0.99788019713185994 0.99884271619762399 0.97957740588863318 2.8083700440528641 0.94832645186114817 -0.060211047012787407 -0.28022029520735747
decision_type=2 2 2 2 2 2 2 2 2 2 2 2 2 2 2 2 2 2 2 2 2 2 2 2 2 2 2 2 2 2
left_child=1 3 8 18 5 -5 28 -3 -2 10 11 12 14 -11 -6 -16 -17 -8 20 -20 -1 -22 -15 25 -25 26 -24 -28 29 -4
right_child=2 7 6 4 9 -7 17 -9 -10 13 -12 -13 -14 22 15 16 -18 -19 19 -21 21 -23 23 24 -26 -27 27 -29 -30 -31
leaf_value=-0.062272313806234283 0.054732277936763864 0.02512112708567061 0.016231997067719241 -0.0039322663735114885 0.010577556448097358 -0.046272121086993724 -0.07360646248362053 -0.020027902043742878 -0.040339760565619616 -0.077276617119924326 0.028410410689763767 -0.075155649411753858 0.075407127150132799 0.064697675976393809 -0.052145092998675716 0.053988912386757661 -0.01776882046647995 0.029188831053169162 -0.06743480528481012 0.053136039073113608 -0.066232859402638664 -0.0015466003623225801 -0.060688803948236704 0.074276764553780017 -0.080469654417832603 -0.078583785365334891 -0.043428108525267149 0.043138550073396835 0.023657430173592568 -0.08089868066257655
leaf_weight=1261.8893073797226 138.9519382044673 2979.0245093330741 3461.5956005230546 1534.2433543875813 1915.1896616443992 1789.2864843979478 280.47892089188099 716.10032043606043 953.24262226372957 410.25546913594007 2726.9323654174805 411.42119257897139 249.70818081498146 152.59774088859558 963.99409859627485 425.9943607673049 2492.4021953567863 131.31019012629986 260.59770778566599 359.04762203246355 359.97512308508158 922.47917956113815 361.60231595486403 279.27622602134943 126.36639168858528 422.22520136833191 176.66981790214777 517.80873544514179 8233.718958593905 443.43747413903475
leaf_count=12337 235 7387 9733 7994 6885 14024 2434 3622 7713 3680 7619 3434 263 299 6725 729 13242 428 2699 1013 3892 5999 2894 320 1082 3661 1145 1459 21777 3268
internal_value=-2.43954e-05 -0.00771521 0.0122734 -0.0126271 -0.00845534 -0.0267267 0.0157994 0.0163714 -0.0282444 -0.00323498 0.00153335 -0.00981442 -0.00536899 -0.021136 -0.00884811 -0.0184308 -0.00729444 -0.0408274 -0.0323467 0.00242883 -0.0408159 -0.0197035 -0.00982663 -0.015863 0.0260699 -0.0273693 -0.00689353 0.0211167 0.0177204 0.00520229
internal_weight=35457.8 21815.1 13642.7 18120 14956 3323.53 12550.5 3695.12 1092.19 11632.4 9185.64 6458.71 6047.29 2446.8 5797.58 3882.39 2918.4 411.789 3163.99 619.645 2544.34 1282.45 2036.55 1883.95 405.643 1478.31 1056.08 694.479 12138.8 3905.03
internal_count=157992 112404 45588 101395 75455 22018 37640 11009 7948 53437 38897 31278 27844 14540 27581 20696 13971 2862 25940 3712 22228 9891 10860 10561 1402 9159 5498 2604 34778 13001
is_linear=0
shrinkage=0.05


Tree=23
num_leaves=31
num_cat=0
split_feature=6 11 3 0 9 9 11 9 1 0 10 9 9 9 9 9 9 9 9 9 11 11 1 11 1 10 9 9 10 0
split_gain=1233.78 653.862 769.519 512.547 580.662 604.538 461.586 566.254 489.419 475.865 375.023 541.492 350.131 348.527 443.24 686.756 632.072 716.999 804.508 967.409 510.724 474.613 424.083 410.921 385.642 319.94 325.762 289.68 461.342 353.103
threshold=0.55000000000000016 0.7709251101321587 12.550000000000002 -5.3499999999999988 -0.77485533897735703 -0.78562075391377661 2.8083700440528641 0.93068945620106103 19.550000000000004 -6.2499999999999991 0.99548449742306455 0.077383612769883189 0.98591162957303935 0.97597439833903876 0.53071038945192506 0.60160177853794483 0.1797599270123609 1.0000000180025095e-35 -0.28022029520735747 -0.31309544317432719 2.8083700440528641 3.6894273127753308 -6.1499999999999995 2.5330396475770929 -1.2499999999999998 0.99903710851409044 0.98591162957303935 0.92425648564791574 0.51972456038539816 5.3500000000000005
decision_type=2 2 2 2 2 2 2 2 2 2 2 2 2 2 2 2 2 2 2 2 2 2 2 2 2 2 2 2 2 2
left_child=1 10 3 4 5 -3 7 27 -9 -8 -1 -12 -4 14 16 -16 17 18 19 -6 -21 23 -19 24 -17 26 -11 28 29 -2
right_child=6 2 12 -5 13 -7 9 8 -10 25 11 -13 -14 -15 15 21 -18 22 -20 20 -22 -23 -24 -25 -26 -27 -28 -29 -30 -31
leaf_value=-0.044314469469315727 -0.080970028532607041 -0.036380977592030593 0.019208147768688101 0.0023400299673159491 -0.030384165036823021 0.087956713655626934 0.0076580717118841599 -0.071926665601287507 0.043102673134981416 0.036156664602371914 -0.065559886802912734 0.092452738511077992 -0.063054526744953029 -0.07176989199251721 0.038549405260287571 -0.068160184377483835 -0.056139260720219797 0.036721038462619107 -0.073298132196685337 0.06851332776074999 -0.079385852588598094 -0.076961577335053558 -0.032931065782996621 0.0067071992872851779 0.00078324304161315615 -0.16710949021937788 -0.078170804869062027 0.063566407786604232 0.0072613189450651096 0.053826757650673102
leaf_weight=1644.4753552898765 252.50461500138044 156.91494869440794 3376.7195803150535 5499.3926287814975 1974.8313952311873 259.31435327976942 3842.2592066302896 426.22145035862923 118.09077249467373 3493.5832063630223 94.62837840616703 126.96483156830072 134.5017042979598 305.78841419517994 761.44532808661461 447.15004823356867 1337.8287449851632 808.19251826405525 770.94294361770153 422.58521858602762 67.725492902100086 279.12208948284388 299.52834070473909 1592.4207368642092 371.22625031322241 19.86343365162611 63.438768856227398 212.23935445398092 6008.3693357780576 60.157265104353428
leaf_count=15554 2033 950 10087 23627 13339 123 12169 3842 236 5703 1026 109 1101 2738 2215 4221 11703 2581 7367 662 589 2333 1829 7216 2097 186 548 234 21488 86
internal_value=-2.81408e-05 -0.00785269 -0.00505999 -0.00988899 -0.0167131 0.0410824 0.0111617 0.00202698 -0.0469706 0.0198759 -0.0360864 0.0249756 0.016057 -0.0192618 -0.0175037 -0.00337107 -0.0260888 -0.0168337 -0.0287187 -0.014777 0.0480844 -0.0152377 0.0178871 -0.00809126 -0.0368865 0.0330002 0.0341177 0.00610915 0.00417993 -0.0550346
internal_weight=35228.4 20731.7 18865.6 15354.4 9855.02 416.229 14496.7 7077.58 544.312 7419.14 1866.07 221.593 3511.22 9438.79 9133 3451.36 5681.63 4343.81 3236.09 2465.14 490.311 2689.92 1107.72 2410.8 818.376 3576.89 3557.02 6533.27 6321.03 312.662
internal_count=157992 111467 94778 83590 59963 1073 46525 27919 4078 18606 16689 1135 11188 58890 56152 18082 38070 26367 21957 14590 1251 15867 4410 13534 6318 6437 6251 23841 23607 2119
is_linear=0
shrinkage=0.05


Tree=24
num_leaves=31
num_cat=0
split_feature=3 6 11 11 1 0 9 9 9 9 9 9 9 9 9 1 9 9 1 9 9 0 9 9 9 9 9 1 11 9
split_gain=1137.68 883.535 659.983 526.237 496.62 538.849 455.916 410.255 396.374 348.234 979.535 668.954 632.582 578.663 415.333 340.131 331.13 1330.55 426.936 391.205 487.505 380.928 366.543 542.169 366.017 353.982 503.195 424.237 418.797 342.265
threshold=11.250000000000002 2.0500000000000003 0.7709251101321587 1.651982378854626 -7.8499999999999988 -21.949999999999996 0.98591162957303935 0.62873952466552263 -0.81650780615488772 0.81650780615488772 0.53071038945192506 0.34559951088524249 0.32939628064323895 0.895806108055896 0.24701303056106858 15.050000000000002 -0.060211047012787407 -0.28022029520735747 -3.6499999999999999 -0.45588980632163084 -0.50122324700604071 -19.349999999999998 -0.84521774858100296 -0.82632358983411114 -0.85429052490166524 -0.81650780615488772 -0.64203093096257957 2.6500000000000008 2.8083700440528641 0.84521774858100318
decision_type=2 2 2 2 2 2 2 2 2 2 2 2 2 2 2 2 2 2 2 2 2 2 2 2 2 2 2 2 2 2
left_child=1 3 8 -1 5 -5 16 -3 -2 10 11 12 14 -11 -6 -8 17 19 -18 20 22 -19 24 -24 -4 -25 28 -28 -27 -20
right_child=2 7 6 4 9 -7 15 -9 -10 13 -12 -13 -14 -15 -16 -17 18 21 29 -21 -22 -23 23 25 -26 26 27 -29 -30 -31
leaf_value=-0.030606663445875995 0.052860390792439184 0.023431884424804105 -0.11406648248495291 -0.0033225176971833949 -0.0060445606014738872 -0.044039590015265397 -0.070142537138303401 -0.018886939908146397 -0.038120962697936273 -0.074951612918367314 0.026660208601862325 -0.071821461330010036 0.0732272338913008 -0.008970891123280169 -0.085776597697863971 0.028217499340201565 -0.00059980837902400756 0.029356884416558406 0.034635180905866314 0.04558684203368845 -0.12633719737918769 -0.097618425446496654 -0.13674090867874975 0.06209864421936663 0.060155517988492883 -0.0030041170942994612 0.040997874428311189 -0.058735391780532303 -0.072047701205153067 0.008484045749895773
leaf_weight=3066.5247405469418 137.41931788623333 2948.6374934390187 32.320914968848228 1521.968482658267 5588.3728160485625 1743.2583966478705 268.72357388585806 710.74280476570129 929.07248613983393 398.21446444839239 2715.1496921777725 399.56933101266623 247.71445605158806 2007.5847618356347 168.24931863695383 130.61111598461866 1657.6552145406604 70.24442882835865 4806.6552190706134 793.54964976012707 68.255702592432499 371.20066098868847 70.059817835688591 237.39779338985682 448.08438815176487 618.82321786880493 698.11399254202843 125.84914348274469 340.47289332002401 1691.4839715659618
leaf_count=25940 235 7387 261 7994 26116 14024 2434 3622 7713 3680 7619 3434 263 10860 1465 428 6918 197 9017 1410 587 3071 609 209 329 2360 1216 742 2010 5842
internal_value=-3.10956e-05 -0.00716938 0.0113491 -0.0117561 -0.00784774 -0.0250608 0.0145879 0.0152125 -0.0263979 -0.00297093 0.00149326 -0.00917711 -0.00500832 -0.0198922 -0.0083749 -0.0379717 0.0163326 0.00429707 0.0220501 0.0148044 0.00554938 -0.0774136 0.00905058 1.01512e-06 0.0484341 0.0047421 -0.00289353 0.025765 -0.027509 0.027828
internal_weight=35012 21516 13496 17856.6 14790.1 3265.23 12429.5 3659.38 1066.49 11524.9 9119.06 6403.91 6004.34 2405.8 5756.62 399.335 12030.2 3874.37 8155.79 3432.93 2639.38 441.445 2571.12 2090.72 480.405 2020.66 1783.26 823.963 959.296 6498.14
internal_count=157992 112404 45588 101395 75455 22018 37640 11009 7948 53437 38897 31278 27844 14540 27581 2862 34778 13001 21777 9733 8323 3268 7736 7146 590 6537 6328 1958 4370 14859
is_linear=0
shrinkage=0.05


Tree=25
num_leaves=31
num_cat=0
split_feature=6 11 3 0 9 9 9 1 11 9 10 10 10 9 10 0 11 9 9 0 9 9 1 9 9 1 1 9 9 2
split_gain=1045.68 608.016 453.791 466.123 423.087 419.922 731.127 397.669 452.663 449.523 375.175 348.709 978.254 764.112 551.751 391.679 356.663 335.645 495.284 378.011 350.421 325.286 322.271 317.132 442.732 383.648 316.152 295.093 638.397 291.701
threshold=1.0000000180025095e-35 0.7709251101321587 13.250000000000002 -10.449999999999998 0.93684664338241042 0.92425648564791574 0.90332234122743971 -0.34999999999999992 2.8083700440528641 0.84521774858100318 0.99992591960455823 0.94415253529446119 0.98367285631203072 0.025817483889290217 0.93834263341299773 -19.349999999999998 1.651982378854626 0.077383612769883189 -0.68074819302830647 -8.8499999999999996 0.60160177853794483 -0.16280098242287938 1.2500000000000002 -0.72953053062994899 -0.79615337246572715 1.7500000000000002 4.1500000000000012 -0.45588980632163084 -0.40934079590914529 4.745000000000001
decision_type=2 2 2 2 2 2 2 2 2 2 2 2 2 2 2 2 2 2 2 2 2 2 2 2 2 2 2 2 2 2
left_child=1 -1 3 -3 5 6 7 9 17 10 11 14 -13 15 16 21 -2 18 23 -20 -19 -14 -6 24 -9 -26 -25 -21 -29 -5
right_child=4 2 -4 29 22 -7 -8 8 -10 -11 -12 12 13 -15 -16 -17 -18 20 19 27 -22 -23 -24 26 25 -27 -28 28 -30 -31
leaf_value=-0.041700927574933336 -0.046011201350128109 -0.021110575964819571 0.016979650512161878 -0.011402155560433105 -0.072407987308166596 0.047472449162786548 -0.090723775523035011 0.021584654269186952 0.029589124449853 -0.078521700830030822 0.052626225146634557 -0.069951529636352941 0.080060583385590398 0.029357627468522485 0.056800926973287327 -0.072208839345638709 0.0061701992534283472 0.030718922390017694 0.039089736712564258 -0.079195271879206164 -0.0038471523043416833 -0.089759589055271038 -0.0079236042076567797 -0.066659385224370774 0.027080270093412431 -0.10238745995391506 0.064120033719705871 0.048193542914324622 -0.05156127795830874 0.0086178654757133894
leaf_weight=1345.2581239938736 358.91652927547693 5344.5427171736956 1793.681981690228 3741.9350740090013 234.94789830595255 714.01014828681946 184.26837845146656 574.85266253352165 3777.1907185688615 175.09060334414244 355.66130688041449 615.33245884627104 91.873155124485493 1029.6935357749462 508.87784145772457 370.55925905704498 3737.0998240411282 2020.4195947498083 179.54880157113075 324.44607299566269 1150.8595159575343 40.686442077159882 1105.0899011641741 52.164488077163696 87.323406606912613 165.98487306386232 404.9965982362628 226.62700521945953 548.70533734560013 3541.5282277315855
leaf_count=13730 2661 37175 5667 20810 2288 1113 1559 1498 6774 1431 331 4773 46 2508 550 2871 12653 4334 353 2579 4778 332 5830 373 209 1393 488 385 3792 14708
internal_value=-2.96145e-05 -0.00955255 -0.00655374 -0.00989642 0.00785827 0.0099096 0.00833019 0.00941685 0.0161487 0.000624617 0.00257403 -6.20637e-05 -0.0166973 0.00468102 0.00769816 -0.0458226 0.00159776 0.00729797 -0.0061517 -0.0281758 0.0181749 0.0279378 -0.0192296 0.0157697 -0.00268309 -0.0577558 0.0491974 -0.0391575 -0.0224033 -0.00166757
internal_weight=34802.2 15766.9 14421.7 12628 19035.2 17695.2 16981.2 16796.9 9513.12 7283.79 7108.7 6753.04 2148.14 1532.81 4604.89 503.119 4096.02 5735.93 2564.65 1279.33 3171.28 132.56 1340.04 1285.32 828.161 253.308 457.161 1099.78 775.332 7283.46
internal_count=157992 92090 78360 72693 65902 57784 56671 55112 26956 28156 26725 26394 10530 5757 15864 3249 15314 20182 11070 7109 9112 378 8118 3961 3100 1602 861 6756 4177 35518
is_linear=0
shrinkage=0.05


Tree=26
num_leaves=31
num_cat=0
split_feature=3 6 11 11 10 10 9 9 9 9 9 9 9 9 9 10 9 10 10 10 9 9 9 9 9 9 9 9 9 9
split_gain=956.44 746.014 565.589 464.487 432.447 1192.11 637.638 578.835 743.183 904.236 411.425 404.547 387.004 358.293 357.875 653.638 562.515 528.597 391.895 960.171 373.108 373.192 351.12 346.829 370.675 748.322 494.907 546.816 331.635 452.011
threshold=11.250000000000002 2.0500000000000003 0.7709251101321587 1.651982378854626 0.81898454963288581 0.7987497853924842 -0.44050246714542113 -0.28022029520735747 1.0000000180025095e-35 0.1797599270123609 0.53071038945192506 0.98591162957303935 0.55956853472936874 0.62873952466552263 0.81650780615488772 0.72660752476856549 0.895806108055896 0.76110425866077458 0.70860043010605911 0.67123509350548771 -0.78562075391377661 -0.84521774858100296 -0.81650780615488772 0.90332234122743971 0.99788019713185994 0.99884271619762399 0.97957740588863318 0.96343486076357798 -0.29670182876844958 -0.40934079590914529
decision_type=2 2 2 2 2 2 2 2 2 2 2 2 2 2 2 2 2 2 2 2 2 2 2 2 2 2 2 2 2 2
left_child=1 3 22 -1 5 14 -6 28 -9 -10 -11 -4 -12 -3 15 18 -16 -17 19 20 21 -5 -2 -18 26 -26 27 -25 29 -8
right_child=2 13 11 4 6 -7 7 8 9 10 12 -13 -14 -15 16 17 23 -19 -20 -21 -22 -23 -24 24 25 -27 -28 -29 -30 -31
leaf_value=-0.028792614426052878 0.05014366315366673 0.021854154353958252 0.015131248324164291 0.031509647491733829 -0.064866681246138966 0.05058339846890611 0.040907403847653026 -0.060348228242297686 0.019217683069495672 -0.044847495702330653 0.032275909576045522 -0.036531651410317494 -0.098170625892295194 -0.017828508300413624 -0.072771231352569091 -0.082736794866509533 0.061654236749483809 -0.0071475957073205941 0.046957564808287833 -0.071516754812235392 0.027481550675570426 -0.039779024067847168 -0.036210762583842475 -0.044341650067090184 0.071466241697665689 -0.077060313042407347 -0.07526925548330396 0.02516327781014116 0.058036977637813528 -0.022261278730902761
leaf_weight=2992.3428555950522 135.36283929646015 2907.6747264862061 11878.980521179736 288.82883127778769 623.5114072561264 1036.8397374525666 462.65902644395828 940.85392484068871 1482.1724279746413 1512.4158956035972 351.04793754220009 391.40880234539509 67.846678227186203 707.16355382651091 447.03603618592024 358.46499524265528 152.3799599558115 651.88132018595934 642.21051871031523 369.49953523278236 1768.1109058633447 503.80775751173496 902.806734777987 587.84441262483597 278.15267538279295 122.00126230716705 405.13405142724514 545.63224431872368 342.87998294085264 730.07889279723167
leaf_count=25940 235 7387 34778 637 5369 1949 1093 8042 5270 11931 1149 2862 556 3622 4276 3137 301 3111 1477 2796 5111 2869 7713 4378 320 1084 3668 2022 623 4286
internal_value=-2.8413e-05 -0.00660404 0.0104851 -0.0108393 -0.00717754 0.000492922 -0.0167844 -0.0116944 -0.0210028 -0.010158 -0.0327023 0.0134833 0.011148 0.0140911 -0.00680042 0.0015414 -0.021862 -0.0339662 0.0115835 0.00383071 0.0147029 -0.0138021 -0.0249513 -0.0109788 -0.0166875 0.0261826 -0.027837 -0.0108834 0.0146999 0.00224164
internal_weight=34587 21278.5 13308.6 17663.6 14671.3 8157.82 6513.47 5889.95 4354.34 3413.48 1931.31 12270.4 418.895 3614.84 7120.98 4582.8 2538.18 1010.35 3572.46 2930.25 2560.75 792.637 1038.17 2091.14 1938.76 400.154 1538.61 1133.48 1535.62 1192.74
internal_count=157992 112404 45588 101395 75455 37136 38319 32950 26948 18906 13636 37640 1705 11009 35187 19138 16049 6248 12890 11413 8617 3506 7948 11773 11472 1404 10068 6400 6002 5379
is_linear=0
shrinkage=0.05


Tree=27
num_leaves=31
num_cat=0
split_feature=3 11 11 1 0 0 1 10 9 9 9 9 9 9 10 9 9 9 6 9 9 9 9 9 9 9 9 9 9 11
split_gain=883.457 589.214 569.185 494.898 451.074 422.047 412.437 519.889 566.287 1446.27 431.389 380.432 622.581 399.391 370.512 350.902 458.459 834.412 477.953 576.57 448.755 348.306 466.94 347.8 342.607 329.486 316.226 406.535 315.575 308.9
threshold=9.7500000000000018 1.651982378854626 0.7709251101321587 -8.2499999999999982 -23.149999999999995 -3.3499999999999992 -2.9499999999999997 0.51972456038539816 -0.060211047012787407 -0.28022029520735747 0.87167402993692 -0.45588980632163084 -0.81650780615488772 -0.50122324700604071 0.99548449742306455 0.81650780615488772 0.53071038945192506 0.34559951088524249 2.1500000000000008 0.32939628064323895 0.895806108055896 -0.58776348020728253 -0.60160177853794516 0.90332234122743971 0.6152618092779969 0.79615337246572693 0.077383612769883189 -0.81650780615488772 0.1797599270123609 3.6894273127753308
decision_type=2 2 2 2 2 2 2 2 2 2 2 2 2 2 2 2 2 2 2 2 2 2 2 2 2 2 2 2 2 2
left_child=1 -1 5 4 29 -2 -4 10 9 11 -8 12 -9 -14 21 16 17 18 19 28 -17 22 -6 -22 -18 26 27 -7 -5 -3
right_child=2 3 6 15 14 25 7 8 -10 -11 -12 -13 13 -15 -16 20 24 -19 -20 -21 23 -23 -24 -25 -26 -27 -28 -29 -30 -31
leaf_value=-0.030907553315419785 -0.058169431039948663 0.0099703102787797385 -0.003648227694002683 -0.0060751867694231552 -0.071538007243705098 0.044535665720858757 -0.10443694194035609 0.040330746642556134 0.03082114758978894 -0.098924586245062729 -0.0006644899214994838 0.047584196501715151 -0.0039609704581602696 -0.12150070017724109 0.012531778372353372 -0.06961845092092131 0.042805949339207623 -0.073772373872776964 0.027004350480215551 0.073400112110900848 0.062660794085489691 -0.060679948042513303 0.1046651203619756 -0.014799220157003634 0.0059927368872967311 -0.063068597467298454 0.042383701227940974 -0.061339703628053369 -0.0628857286079859 -0.067996280840688636
leaf_weight=2449.2570445388556 518.99079336971045 1021.5492922216654 3891.6807930320501 4518.1548331677914 72.317563474178314 146.70426522195339 104.35389660298824 965.56922505050898 5534.1060762107372 302.4598590284586 2485.1800394430757 713.48457579314709 2039.4811012595892 74.926849700510502 272.14100211858749 352.77583585679531 1140.3193100392818 386.45206678658724 1462.5005180984735 221.3299630060792 159.03708683699369 1176.3128877580166 78.316634550690651 1632.0191687047482 1417.8625186905265 181.53383745998144 406.2170710042119 237.36300460249186 258.42905557900667 145.08263327181339
leaf_count=21701 5367 4708 17500 22069 713 324 854 1612 11129 2487 10933 1085 7287 639 1180 3438 2260 3494 3198 242 269 11324 43 9537 5270 2184 1206 2556 2156 1227
